<?xml version="1.0"?>
<MethodSetup Method="BDT::BDT">
  <GeneralInfo>
    <Info name="TMVA Release" value="4.2.1 [262657]"/>
    <Info name="ROOT Release" value="6.10/09 [395785]"/>
    <Info name="Creator" value="cmantill"/>
    <Info name="Date" value="Mon May 27 14:18:56 2019"/>
    <Info name="Host" value="Linux cmsbuild20.cern.ch 2.6.32-696.23.1.el6.x86_64 #1 SMP Wed Mar 14 11:28:37 CET 2018 x86_64 x86_64 x86_64 GNU/Linux"/>
    <Info name="Dir" value="/uscms_data/d3/cmantill/hww/CMSSW_9_4_7/src/PandaAnalysis/LSFTagging/train"/>
    <Info name="Training events" value="1737807"/>
    <Info name="TrainingTime" value="1.40531012e+03"/>
    <Info name="AnalysisType" value="Classification"/>
  </GeneralInfo>
  <Options>
    <Option name="V" modified="Yes">False</Option>
    <Option name="VerbosityLevel" modified="No">Default</Option>
    <Option name="VarTransform" modified="No">None</Option>
    <Option name="H" modified="Yes">False</Option>
    <Option name="CreateMVAPdfs" modified="No">False</Option>
    <Option name="IgnoreNegWeightsInTraining" modified="No">False</Option>
    <Option name="NTrees" modified="Yes">850</Option>
    <Option name="MaxDepth" modified="Yes">5</Option>
    <Option name="MinNodeSize" modified="Yes">2.5%</Option>
    <Option name="nCuts" modified="Yes">10</Option>
    <Option name="BoostType" modified="Yes">AdaBoost</Option>
    <Option name="AdaBoostR2Loss" modified="No">quadratic</Option>
    <Option name="UseBaggedBoost" modified="Yes">True</Option>
    <Option name="Shrinkage" modified="No">1.000000e+00</Option>
    <Option name="AdaBoostBeta" modified="Yes">5.000000e-01</Option>
    <Option name="UseRandomisedTrees" modified="No">False</Option>
    <Option name="UseNvars" modified="No">4</Option>
    <Option name="UsePoissonNvars" modified="No">True</Option>
    <Option name="BaggedSampleFraction" modified="Yes">5.000000e-01</Option>
    <Option name="UseYesNoLeaf" modified="No">True</Option>
    <Option name="NegWeightTreatment" modified="No">inverseboostnegweights</Option>
    <Option name="Css" modified="No">1.000000e+00</Option>
    <Option name="Cts_sb" modified="No">1.000000e+00</Option>
    <Option name="Ctb_ss" modified="No">1.000000e+00</Option>
    <Option name="Cbb" modified="No">1.000000e+00</Option>
    <Option name="NodePurityLimit" modified="No">5.000000e-01</Option>
    <Option name="SeparationType" modified="Yes">giniindex</Option>
    <Option name="RegressionLossFunctionBDTG" modified="No">huber</Option>
    <Option name="HuberQuantile" modified="No">7.000000e-01</Option>
    <Option name="DoBoostMonitor" modified="No">False</Option>
    <Option name="UseFisherCuts" modified="No">False</Option>
    <Option name="MinLinCorrForFisher" modified="No">8.000000e-01</Option>
    <Option name="UseExclusiveVars" modified="No">False</Option>
    <Option name="DoPreselection" modified="No">False</Option>
    <Option name="SigToBkgFraction" modified="No">1.000000e+00</Option>
    <Option name="PruneMethod" modified="No">nopruning</Option>
    <Option name="PruneStrength" modified="No">0.000000e+00</Option>
    <Option name="PruningValFraction" modified="No">5.000000e-01</Option>
    <Option name="SkipNormalization" modified="No">False</Option>
    <Option name="nEventsMin" modified="No">0</Option>
    <Option name="UseBaggedGrad" modified="No">False</Option>
    <Option name="GradBaggingFraction" modified="No">5.000000e-01</Option>
    <Option name="UseNTrainEvents" modified="No">0</Option>
    <Option name="NNodesMax" modified="No">0</Option>
  </Options>
  <Variables NVar="12">
    <Variable VarIndex="0" Expression="clf_LSF3" Label="clf_LSF3" Title="clf_LSF3" Unit="" Internal="clf_LSF3" Type="F" Min="-1.00000000e+02" Max="1.20438111e+00"/>
    <Variable VarIndex="1" Expression="clf_dRLep" Label="clf_dRLep" Title="clf_dRLep" Unit="" Internal="clf_dRLep" Type="F" Min="-1.00000000e+00" Max="7.99990952e-01"/>
    <Variable VarIndex="2" Expression="clf_e3_v2_sdb1/(clf_e2_sdb1*clf_e2_sdb1)" Label="clf_e3_v2_sdb1/(clf_e2_sdb1*clf_e2_sdb1)" Title="n2b1" Unit="" Internal="clf_e3_v2_sdb1_D__clf_e2_sdb1_T_clf_e2_sdb1_" Type="F" Min="1.37434332e-02" Max="4.52098131e-01"/>
    <Variable VarIndex="3" Expression="clf_e3_v1_sdb1/clf_e2_sdb1" Label="clf_e3_v1_sdb1/clf_e2_sdb1" Title="m2b1" Unit="" Internal="clf_e3_v1_sdb1_D_clf_e2_sdb1" Type="F" Min="1.74591050e-03" Max="1.89915419e-01"/>
    <Variable VarIndex="4" Expression="clf_e3_sdb1/(clf_e2_sdb1*clf_e2_sdb1*clf_e2_sdb1)" Label="clf_e3_sdb1/(clf_e2_sdb1*clf_e2_sdb1*clf_e2_sdb1)" Title="d2b1" Unit="" Internal="clf_e3_sdb1_D__clf_e2_sdb1_T_clf_e2_sdb1_T_clf_e2_sdb1_" Type="F" Min="7.17974156e-02" Max="4.17643738e+00"/>
    <Variable VarIndex="5" Expression="clf_e4_v2_sdb1/(clf_e3_v1_sdb1*clf_e3_v1_sdb1)" Label="clf_e4_v2_sdb1/(clf_e3_v1_sdb1*clf_e3_v1_sdb1)" Title="n3b1" Unit="" Internal="clf_e4_v2_sdb1_D__clf_e3_v1_sdb1_T_clf_e3_v1_sdb1_" Type="F" Min="5.69688976e-02" Max="4.70798111e+00"/>
    <Variable VarIndex="6" Expression="clf_Tau2/clf_Tau1" Label="clf_Tau2/clf_Tau1" Title="tau21" Unit="" Internal="clf_Tau2_D_clf_Tau1" Type="F" Min="1.82077903e-02" Max="9.69808221e-01"/>
    <Variable VarIndex="7" Expression="clf_Tau3/clf_Tau1" Label="clf_Tau3/clf_Tau1" Title="tau31" Unit="" Internal="clf_Tau3_D_clf_Tau1" Type="F" Min="1.05254985e-02" Max="8.55712771e-01"/>
    <Variable VarIndex="8" Expression="clf_Tau3/clf_Tau2" Label="clf_Tau3/clf_Tau2" Title="tau32" Unit="" Internal="clf_Tau3_D_clf_Tau2" Type="F" Min="8.74500573e-02" Max="1.06887662e+00"/>
    <Variable VarIndex="9" Expression="clf_Tau4/clf_Tau3" Label="clf_Tau4/clf_Tau3" Title="tau43" Unit="" Internal="clf_Tau4_D_clf_Tau3" Type="F" Min="0.00000000e+00" Max="1.12525141e+00"/>
    <Variable VarIndex="10" Expression="clf_e4_v1_sdb1" Label="clf_e4_v1_sdb1" Title="u3b1" Unit="" Internal="clf_e4_v1_sdb1" Type="F" Min="5.33807754e-09" Max="9.24049690e-03"/>
    <Variable VarIndex="11" Expression="clf_e3_v1_sdb1" Label="clf_e3_v1_sdb1" Title="u2b1" Unit="" Internal="clf_e3_v1_sdb1" Type="F" Min="1.56196729e-05" Max="6.02404326e-02"/>
  </Variables>
  <Spectators NSpec="0"/>
  <Classes NClass="2">
    <Class Name="Signal" Index="0"/>
    <Class Name="Background" Index="1"/>
  </Classes>
  <Transformations NTransformations="0"/>
  <MVAPdfs/>
  <Weights NTrees="850" AnalysisType="0">
    <BinaryTree type="DecisionTree" boostWeight="1.0286897844233727e+00" itree="0">
      <Node pos="s" depth="0" NCoef="0" IVar="0" Cut="-9.0812545776367188e+01" cType="0" res="-9.9000000000000000e+01" rms="0.0000000000000000e+00" purity="5.0190675258636475e-01" nType="0">
        <Node pos="l" depth="1" NCoef="0" IVar="0" Cut="4.8318392038345337e-01" cType="0" res="-9.9000000000000000e+01" rms="0.0000000000000000e+00" purity="7.6173222064971924e-01" nType="0">
          <Node pos="l" depth="2" NCoef="0" IVar="-1" Cut="0.0000000000000000e+00" cType="1" res="-9.9000000000000000e+01" rms="0.0000000000000000e+00" purity="9.7761797904968262e-01" nType="1"/>
          <Node pos="r" depth="2" NCoef="0" IVar="9" Cut="7.6080721616744995e-01" cType="1" res="-9.9000000000000000e+01" rms="0.0000000000000000e+00" purity="2.6610687375068665e-01" nType="0">
            <Node pos="l" depth="3" NCoef="0" IVar="-1" Cut="0.0000000000000000e+00" cType="1" res="-9.9000000000000000e+01" rms="0.0000000000000000e+00" purity="5.8148473501205444e-01" nType="1"/>
            <Node pos="r" depth="3" NCoef="0" IVar="-1" Cut="7.2535790968686342e-04" cType="1" res="-9.9000000000000000e+01" rms="0.0000000000000000e+00" purity="1.7070676386356354e-01" nType="-1"/>
          </Node>
        </Node>
        <Node pos="r" depth="1" NCoef="0" IVar="11" Cut="5.4989126510918140e-03" cType="1" res="-9.9000000000000000e+01" rms="0.0000000000000000e+00" purity="2.5410932302474976e-01" nType="0">
          <Node pos="l" depth="2" NCoef="0" IVar="8" Cut="7.3101609945297241e-01" cType="1" res="-9.9000000000000000e+01" rms="0.0000000000000000e+00" purity="5.2105897665023804e-01" nType="0">
            <Node pos="l" depth="3" NCoef="0" IVar="-1" Cut="0.0000000000000000e+00" cType="1" res="-9.9000000000000000e+01" rms="0.0000000000000000e+00" purity="7.8089547157287598e-01" nType="1"/>
            <Node pos="r" depth="3" NCoef="0" IVar="11" Cut="2.5295962113887072e-03" cType="1" res="-9.9000000000000000e+01" rms="0.0000000000000000e+00" purity="2.4897225201129913e-01" nType="0">
              <Node pos="l" depth="4" NCoef="0" IVar="-1" Cut="0.0000000000000000e+00" cType="1" res="-9.9000000000000000e+01" rms="0.0000000000000000e+00" purity="5.4935377836227417e-01" nType="1"/>
              <Node pos="r" depth="4" NCoef="0" IVar="-1" Cut="3.8818734884262085e-01" cType="1" res="-9.9000000000000000e+01" rms="0.0000000000000000e+00" purity="1.1342372745275497e-01" nType="-1"/>
            </Node>
          </Node>
          <Node pos="r" depth="2" NCoef="0" IVar="-1" Cut="5.5597436428070068e-01" cType="1" res="-9.9000000000000000e+01" rms="0.0000000000000000e+00" purity="9.3319334089756012e-02" nType="-1"/>
        </Node>
      </Node>
    </BinaryTree>
    <BinaryTree type="DecisionTree" boostWeight="8.2682808935025953e-01" itree="1">
      <Node pos="s" depth="0" NCoef="0" IVar="8" Cut="6.2380099296569824e-01" cType="1" res="-9.9000000000000000e+01" rms="0.0000000000000000e+00" purity="5.0007754564285278e-01" nType="0">
        <Node pos="l" depth="1" NCoef="0" IVar="10" Cut="1.3128519058227539e-03" cType="1" res="-9.9000000000000000e+01" rms="0.0000000000000000e+00" purity="8.1690627336502075e-01" nType="0">
          <Node pos="l" depth="2" NCoef="0" IVar="-1" Cut="2.6746201515197754e-01" cType="1" res="-9.9000000000000000e+01" rms="0.0000000000000000e+00" purity="8.9919328689575195e-01" nType="1"/>
          <Node pos="r" depth="2" NCoef="0" IVar="-1" Cut="5.4143643379211426e-01" cType="1" res="-9.9000000000000000e+01" rms="0.0000000000000000e+00" purity="3.8959804177284241e-01" nType="-1"/>
        </Node>
        <Node pos="r" depth="1" NCoef="0" IVar="0" Cut="-9.0799598693847656e+01" cType="0" res="-9.9000000000000000e+01" rms="0.0000000000000000e+00" purity="3.2172670960426331e-01" nType="0">
          <Node pos="l" depth="2" NCoef="0" IVar="0" Cut="3.2911485433578491e-01" cType="0" res="-9.9000000000000000e+01" rms="0.0000000000000000e+00" purity="5.6415534019470215e-01" nType="0">
            <Node pos="l" depth="3" NCoef="0" IVar="-1" Cut="0.0000000000000000e+00" cType="1" res="-9.9000000000000000e+01" rms="0.0000000000000000e+00" purity="8.6515522003173828e-01" nType="1"/>
            <Node pos="r" depth="3" NCoef="0" IVar="11" Cut="5.3677577525377274e-03" cType="1" res="-9.9000000000000000e+01" rms="0.0000000000000000e+00" purity="2.2555796802043915e-01" nType="0">
              <Node pos="l" depth="4" NCoef="0" IVar="-1" Cut="0.0000000000000000e+00" cType="1" res="-9.9000000000000000e+01" rms="0.0000000000000000e+00" purity="5.3193944692611694e-01" nType="1"/>
              <Node pos="r" depth="4" NCoef="0" IVar="-1" Cut="1.2024414539337158e-01" cType="0" res="-9.9000000000000000e+01" rms="0.0000000000000000e+00" purity="1.3004431128501892e-01" nType="-1"/>
            </Node>
          </Node>
          <Node pos="r" depth="2" NCoef="0" IVar="11" Cut="4.7808294184505939e-03" cType="1" res="-9.9000000000000000e+01" rms="0.0000000000000000e+00" purity="1.7728859186172485e-01" nType="0">
            <Node pos="l" depth="3" NCoef="0" IVar="7" Cut="3.9513692259788513e-01" cType="1" res="-9.9000000000000000e+01" rms="0.0000000000000000e+00" purity="3.5605284571647644e-01" nType="0">
              <Node pos="l" depth="4" NCoef="0" IVar="-1" Cut="0.0000000000000000e+00" cType="1" res="-9.9000000000000000e+01" rms="0.0000000000000000e+00" purity="5.3259468078613281e-01" nType="1"/>
              <Node pos="r" depth="4" NCoef="0" IVar="-1" Cut="2.5903695495799184e-04" cType="1" res="-9.9000000000000000e+01" rms="0.0000000000000000e+00" purity="1.6550539433956146e-01" nType="-1"/>
            </Node>
            <Node pos="r" depth="3" NCoef="0" IVar="-1" Cut="7.5942599773406982e-01" cType="1" res="-9.9000000000000000e+01" rms="0.0000000000000000e+00" purity="9.5061004161834717e-02" nType="-1"/>
          </Node>
        </Node>
      </Node>
    </BinaryTree>
    <BinaryTree type="DecisionTree" boostWeight="6.8875788276981165e-01" itree="2">
      <Node pos="s" depth="0" NCoef="0" IVar="8" Cut="6.2380099296569824e-01" cType="1" res="-9.9000000000000000e+01" rms="0.0000000000000000e+00" purity="4.8724690079689026e-01" nType="0">
        <Node pos="l" depth="1" NCoef="0" IVar="0" Cut="-9.0818183898925781e+01" cType="0" res="-9.9000000000000000e+01" rms="0.0000000000000000e+00" purity="7.8033679723739624e-01" nType="0">
          <Node pos="l" depth="2" NCoef="0" IVar="-1" Cut="0.0000000000000000e+00" cType="1" res="-9.9000000000000000e+01" rms="0.0000000000000000e+00" purity="9.0164250135421753e-01" nType="1"/>
          <Node pos="r" depth="2" NCoef="0" IVar="11" Cut="9.7380178049206734e-03" cType="1" res="-9.9000000000000000e+01" rms="0.0000000000000000e+00" purity="5.6768137216567993e-01" nType="0">
            <Node pos="l" depth="3" NCoef="0" IVar="-1" Cut="0.0000000000000000e+00" cType="1" res="-9.9000000000000000e+01" rms="0.0000000000000000e+00" purity="7.1526575088500977e-01" nType="1"/>
            <Node pos="r" depth="3" NCoef="0" IVar="-1" Cut="0.0000000000000000e+00" cType="1" res="-9.9000000000000000e+01" rms="0.0000000000000000e+00" purity="2.7368766069412231e-01" nType="-1"/>
          </Node>
        </Node>
        <Node pos="r" depth="1" NCoef="0" IVar="2" Cut="2.5453335046768188e-01" cType="1" res="-9.9000000000000000e+01" rms="0.0000000000000000e+00" purity="3.2556131482124329e-01" nType="0">
          <Node pos="l" depth="2" NCoef="0" IVar="0" Cut="-9.0818183898925781e+01" cType="0" res="-9.9000000000000000e+01" rms="0.0000000000000000e+00" purity="5.7983756065368652e-01" nType="0">
            <Node pos="l" depth="3" NCoef="0" IVar="-1" Cut="0.0000000000000000e+00" cType="1" res="-9.9000000000000000e+01" rms="0.0000000000000000e+00" purity="8.1685602664947510e-01" nType="1"/>
            <Node pos="r" depth="3" NCoef="0" IVar="10" Cut="2.6505268760956824e-04" cType="1" res="-9.9000000000000000e+01" rms="0.0000000000000000e+00" purity="3.7635651230812073e-01" nType="0">
              <Node pos="l" depth="4" NCoef="0" IVar="-1" Cut="0.0000000000000000e+00" cType="1" res="-9.9000000000000000e+01" rms="0.0000000000000000e+00" purity="5.2650648355484009e-01" nType="1"/>
              <Node pos="r" depth="4" NCoef="0" IVar="-1" Cut="0.0000000000000000e+00" cType="1" res="-9.9000000000000000e+01" rms="0.0000000000000000e+00" purity="2.1537503600120544e-01" nType="-1"/>
            </Node>
          </Node>
          <Node pos="r" depth="2" NCoef="0" IVar="9" Cut="7.7705079317092896e-01" cType="1" res="-9.9000000000000000e+01" rms="0.0000000000000000e+00" purity="2.2661106288433075e-01" nType="0">
            <Node pos="l" depth="3" NCoef="0" IVar="10" Cut="7.7575707109645009e-04" cType="1" res="-9.9000000000000000e+01" rms="0.0000000000000000e+00" purity="4.4847849011421204e-01" nType="0">
              <Node pos="l" depth="4" NCoef="0" IVar="-1" Cut="0.0000000000000000e+00" cType="1" res="-9.9000000000000000e+01" rms="0.0000000000000000e+00" purity="6.1329275369644165e-01" nType="1"/>
              <Node pos="r" depth="4" NCoef="0" IVar="-1" Cut="3.9543738961219788e-01" cType="1" res="-9.9000000000000000e+01" rms="0.0000000000000000e+00" purity="3.0275949835777283e-01" nType="-1"/>
            </Node>
            <Node pos="r" depth="3" NCoef="0" IVar="-1" Cut="3.2538124918937683e-01" cType="1" res="-9.9000000000000000e+01" rms="0.0000000000000000e+00" purity="1.5951508283615112e-01" nType="-1"/>
          </Node>
        </Node>
      </Node>
    </BinaryTree>
    <BinaryTree type="DecisionTree" boostWeight="6.3721450553213144e-01" itree="3">
      <Node pos="s" depth="0" NCoef="0" IVar="8" Cut="7.1199423074722290e-01" cType="1" res="-9.9000000000000000e+01" rms="0.0000000000000000e+00" purity="4.9211314320564270e-01" nType="0">
        <Node pos="l" depth="1" NCoef="0" IVar="0" Cut="-9.0818183898925781e+01" cType="0" res="-9.9000000000000000e+01" rms="0.0000000000000000e+00" purity="6.7272412776947021e-01" nType="0">
          <Node pos="l" depth="2" NCoef="0" IVar="0" Cut="3.6433017253875732e-01" cType="0" res="-9.9000000000000000e+01" rms="0.0000000000000000e+00" purity="8.2084697484970093e-01" nType="0">
            <Node pos="l" depth="3" NCoef="0" IVar="-1" Cut="0.0000000000000000e+00" cType="1" res="-9.9000000000000000e+01" rms="0.0000000000000000e+00" purity="9.5284187793731689e-01" nType="1"/>
            <Node pos="r" depth="3" NCoef="0" IVar="10" Cut="1.4341714559122920e-03" cType="1" res="-9.9000000000000000e+01" rms="0.0000000000000000e+00" purity="4.0064525604248047e-01" nType="0">
              <Node pos="l" depth="4" NCoef="0" IVar="-1" Cut="0.0000000000000000e+00" cType="1" res="-9.9000000000000000e+01" rms="0.0000000000000000e+00" purity="5.3473407030105591e-01" nType="1"/>
              <Node pos="r" depth="4" NCoef="0" IVar="-1" Cut="0.0000000000000000e+00" cType="1" res="-9.9000000000000000e+01" rms="0.0000000000000000e+00" purity="1.9946400821208954e-01" nType="-1"/>
            </Node>
          </Node>
          <Node pos="r" depth="2" NCoef="0" IVar="10" Cut="1.4704238856211305e-03" cType="1" res="-9.9000000000000000e+01" rms="0.0000000000000000e+00" purity="4.7492629289627075e-01" nType="0">
            <Node pos="l" depth="3" NCoef="0" IVar="7" Cut="3.1689620018005371e-01" cType="1" res="-9.9000000000000000e+01" rms="0.0000000000000000e+00" purity="5.4610782861709595e-01" nType="0">
              <Node pos="l" depth="4" NCoef="0" IVar="-1" Cut="2.3770456016063690e-01" cType="1" res="-9.9000000000000000e+01" rms="0.0000000000000000e+00" purity="6.5958619117736816e-01" nType="1"/>
              <Node pos="r" depth="4" NCoef="0" IVar="-1" Cut="6.3607907295227051e-01" cType="1" res="-9.9000000000000000e+01" rms="0.0000000000000000e+00" purity="3.5638067126274109e-01" nType="-1"/>
            </Node>
            <Node pos="r" depth="3" NCoef="0" IVar="-1" Cut="0.0000000000000000e+00" cType="1" res="-9.9000000000000000e+01" rms="0.0000000000000000e+00" purity="1.5039601922035217e-01" nType="-1"/>
          </Node>
        </Node>
        <Node pos="r" depth="1" NCoef="0" IVar="2" Cut="2.9492551088333130e-01" cType="1" res="-9.9000000000000000e+01" rms="0.0000000000000000e+00" purity="2.7678972482681274e-01" nType="0">
          <Node pos="l" depth="2" NCoef="0" IVar="0" Cut="-9.0799598693847656e+01" cType="0" res="-9.9000000000000000e+01" rms="0.0000000000000000e+00" purity="4.1095024347305298e-01" nType="0">
            <Node pos="l" depth="3" NCoef="0" IVar="-1" Cut="0.0000000000000000e+00" cType="1" res="-9.9000000000000000e+01" rms="0.0000000000000000e+00" purity="6.1729222536087036e-01" nType="1"/>
            <Node pos="r" depth="3" NCoef="0" IVar="-1" Cut="8.2865357398986816e-01" cType="1" res="-9.9000000000000000e+01" rms="0.0000000000000000e+00" purity="2.8994125127792358e-01" nType="-1"/>
          </Node>
          <Node pos="r" depth="2" NCoef="0" IVar="-1" Cut="8.1655007600784302e-01" cType="1" res="-9.9000000000000000e+01" rms="0.0000000000000000e+00" purity="1.6411747038364410e-01" nType="-1"/>
        </Node>
      </Node>
    </BinaryTree>
    <BinaryTree type="DecisionTree" boostWeight="5.2332818306819029e-01" itree="4">
      <Node pos="s" depth="0" NCoef="0" IVar="8" Cut="7.1296054124832153e-01" cType="1" res="-9.9000000000000000e+01" rms="0.0000000000000000e+00" purity="4.9864137172698975e-01" nType="0">
        <Node pos="l" depth="1" NCoef="0" IVar="0" Cut="-9.0818183898925781e+01" cType="0" res="-9.9000000000000000e+01" rms="0.0000000000000000e+00" purity="6.5056228637695312e-01" nType="0">
          <Node pos="l" depth="2" NCoef="0" IVar="0" Cut="3.6420273780822754e-01" cType="0" res="-9.9000000000000000e+01" rms="0.0000000000000000e+00" purity="7.9223352670669556e-01" nType="0">
            <Node pos="l" depth="3" NCoef="0" IVar="-1" Cut="0.0000000000000000e+00" cType="1" res="-9.9000000000000000e+01" rms="0.0000000000000000e+00" purity="9.3467479944229126e-01" nType="1"/>
            <Node pos="r" depth="3" NCoef="0" IVar="0" Cut="9.9964067339897156e-02" cType="0" res="-9.9000000000000000e+01" rms="0.0000000000000000e+00" purity="3.9828169345855713e-01" nType="0">
              <Node pos="l" depth="4" NCoef="0" IVar="-1" Cut="0.0000000000000000e+00" cType="1" res="-9.9000000000000000e+01" rms="0.0000000000000000e+00" purity="5.0458657741546631e-01" nType="1"/>
              <Node pos="r" depth="4" NCoef="0" IVar="-1" Cut="0.0000000000000000e+00" cType="1" res="-9.9000000000000000e+01" rms="0.0000000000000000e+00" purity="3.0959510803222656e-01" nType="-1"/>
            </Node>
          </Node>
          <Node pos="r" depth="2" NCoef="0" IVar="9" Cut="7.9455411434173584e-01" cType="1" res="-9.9000000000000000e+01" rms="0.0000000000000000e+00" purity="4.7584131360054016e-01" nType="0">
            <Node pos="l" depth="3" NCoef="0" IVar="-1" Cut="1.4317003488540649e+00" cType="1" res="-9.9000000000000000e+01" rms="0.0000000000000000e+00" purity="6.4101982116699219e-01" nType="1"/>
            <Node pos="r" depth="3" NCoef="0" IVar="-1" Cut="7.1415386628359556e-04" cType="1" res="-9.9000000000000000e+01" rms="0.0000000000000000e+00" purity="3.8009366393089294e-01" nType="-1"/>
          </Node>
        </Node>
        <Node pos="r" depth="1" NCoef="0" IVar="10" Cut="7.3559978045523167e-04" cType="1" res="-9.9000000000000000e+01" rms="0.0000000000000000e+00" purity="3.1654158234596252e-01" nType="0">
          <Node pos="l" depth="2" NCoef="0" IVar="8" Cut="8.0134117603302002e-01" cType="1" res="-9.9000000000000000e+01" rms="0.0000000000000000e+00" purity="4.2039084434509277e-01" nType="0">
            <Node pos="l" depth="3" NCoef="0" IVar="4" Cut="1.5050047636032104e+00" cType="1" res="-9.9000000000000000e+01" rms="0.0000000000000000e+00" purity="5.4375451803207397e-01" nType="0">
              <Node pos="l" depth="4" NCoef="0" IVar="-1" Cut="0.0000000000000000e+00" cType="1" res="-9.9000000000000000e+01" rms="0.0000000000000000e+00" purity="6.3913297653198242e-01" nType="1"/>
              <Node pos="r" depth="4" NCoef="0" IVar="-1" Cut="0.0000000000000000e+00" cType="1" res="-9.9000000000000000e+01" rms="0.0000000000000000e+00" purity="4.0162974596023560e-01" nType="-1"/>
            </Node>
            <Node pos="r" depth="3" NCoef="0" IVar="-1" Cut="2.6764342328533530e-04" cType="1" res="-9.9000000000000000e+01" rms="0.0000000000000000e+00" purity="3.0504256486892700e-01" nType="-1"/>
          </Node>
          <Node pos="r" depth="2" NCoef="0" IVar="-1" Cut="7.8936314582824707e-01" cType="1" res="-9.9000000000000000e+01" rms="0.0000000000000000e+00" purity="1.7748370766639709e-01" nType="-1"/>
        </Node>
      </Node>
    </BinaryTree>
    <BinaryTree type="DecisionTree" boostWeight="5.0016268147634901e-01" itree="5">
      <Node pos="s" depth="0" NCoef="0" IVar="8" Cut="5.3124189376831055e-01" cType="1" res="-9.9000000000000000e+01" rms="0.0000000000000000e+00" purity="5.1123827695846558e-01" nType="0">
        <Node pos="l" depth="1" NCoef="0" IVar="-1" Cut="1.2390633346512914e-03" cType="1" res="-9.9000000000000000e+01" rms="0.0000000000000000e+00" purity="8.1414711475372314e-01" nType="1"/>
        <Node pos="r" depth="1" NCoef="0" IVar="10" Cut="7.7144324313849211e-04" cType="1" res="-9.9000000000000000e+01" rms="0.0000000000000000e+00" purity="4.4197544455528259e-01" nType="0">
          <Node pos="l" depth="2" NCoef="0" IVar="0" Cut="-9.0818183898925781e+01" cType="0" res="-9.9000000000000000e+01" rms="0.0000000000000000e+00" purity="5.4268145561218262e-01" nType="0">
            <Node pos="l" depth="3" NCoef="0" IVar="0" Cut="1.8252477049827576e-01" cType="0" res="-9.9000000000000000e+01" rms="0.0000000000000000e+00" purity="7.0862835645675659e-01" nType="0">
              <Node pos="l" depth="4" NCoef="0" IVar="-1" Cut="0.0000000000000000e+00" cType="1" res="-9.9000000000000000e+01" rms="0.0000000000000000e+00" purity="8.2723188400268555e-01" nType="1"/>
              <Node pos="r" depth="4" NCoef="0" IVar="-1" Cut="0.0000000000000000e+00" cType="1" res="-9.9000000000000000e+01" rms="0.0000000000000000e+00" purity="3.7932646274566650e-01" nType="-1"/>
            </Node>
            <Node pos="r" depth="3" NCoef="0" IVar="5" Cut="1.7908108234405518e+00" cType="1" res="-9.9000000000000000e+01" rms="0.0000000000000000e+00" purity="4.3065589666366577e-01" nType="0">
              <Node pos="l" depth="4" NCoef="0" IVar="7" Cut="4.5804703235626221e-01" cType="1" res="-9.9000000000000000e+01" rms="0.0000000000000000e+00" purity="5.1199376583099365e-01" nType="0">
                <Node pos="l" depth="5" NCoef="0" IVar="-1" Cut="0.0000000000000000e+00" cType="1" res="-9.9000000000000000e+01" rms="0.0000000000000000e+00" purity="5.7790493965148926e-01" nType="1"/>
                <Node pos="r" depth="5" NCoef="0" IVar="-1" Cut="0.0000000000000000e+00" cType="1" res="-9.9000000000000000e+01" rms="0.0000000000000000e+00" purity="2.2184586524963379e-01" nType="-1"/>
              </Node>
              <Node pos="r" depth="4" NCoef="0" IVar="-1" Cut="3.5912606399506330e-03" cType="1" res="-9.9000000000000000e+01" rms="0.0000000000000000e+00" purity="3.1735762953758240e-01" nType="-1"/>
            </Node>
          </Node>
          <Node pos="r" depth="2" NCoef="0" IVar="9" Cut="7.1777218580245972e-01" cType="1" res="-9.9000000000000000e+01" rms="0.0000000000000000e+00" purity="2.8796374797821045e-01" nType="0">
            <Node pos="l" depth="3" NCoef="0" IVar="-1" Cut="0.0000000000000000e+00" cType="1" res="-9.9000000000000000e+01" rms="0.0000000000000000e+00" purity="5.9226840734481812e-01" nType="1"/>
            <Node pos="r" depth="3" NCoef="0" IVar="-1" Cut="4.1241356730461121e-01" cType="1" res="-9.9000000000000000e+01" rms="0.0000000000000000e+00" purity="2.3857285082340240e-01" nType="-1"/>
          </Node>
        </Node>
      </Node>
    </BinaryTree>
    <BinaryTree type="DecisionTree" boostWeight="5.2545024429293141e-01" itree="6">
      <Node pos="s" depth="0" NCoef="0" IVar="0" Cut="-9.0799598693847656e+01" cType="0" res="-9.9000000000000000e+01" rms="0.0000000000000000e+00" purity="5.1100349426269531e-01" nType="0">
        <Node pos="l" depth="1" NCoef="0" IVar="0" Cut="5.4783147573471069e-01" cType="0" res="-9.9000000000000000e+01" rms="0.0000000000000000e+00" purity="6.5537238121032715e-01" nType="0">
          <Node pos="l" depth="2" NCoef="0" IVar="-1" Cut="0.0000000000000000e+00" cType="1" res="-9.9000000000000000e+01" rms="0.0000000000000000e+00" purity="9.0460681915283203e-01" nType="1"/>
          <Node pos="r" depth="2" NCoef="0" IVar="9" Cut="8.5153478384017944e-01" cType="1" res="-9.9000000000000000e+01" rms="0.0000000000000000e+00" purity="3.6888933181762695e-01" nType="0">
            <Node pos="l" depth="3" NCoef="0" IVar="11" Cut="1.0705055668950081e-02" cType="1" res="-9.9000000000000000e+01" rms="0.0000000000000000e+00" purity="4.4471728801727295e-01" nType="0">
              <Node pos="l" depth="4" NCoef="0" IVar="-1" Cut="0.0000000000000000e+00" cType="1" res="-9.9000000000000000e+01" rms="0.0000000000000000e+00" purity="5.2656340599060059e-01" nType="1"/>
              <Node pos="r" depth="4" NCoef="0" IVar="-1" Cut="1.3766664266586304e+00" cType="1" res="-9.9000000000000000e+01" rms="0.0000000000000000e+00" purity="3.3880165219306946e-01" nType="-1"/>
            </Node>
            <Node pos="r" depth="3" NCoef="0" IVar="-1" Cut="7.2493386687710881e-04" cType="1" res="-9.9000000000000000e+01" rms="0.0000000000000000e+00" purity="2.2464993596076965e-01" nType="-1"/>
          </Node>
        </Node>
        <Node pos="r" depth="1" NCoef="0" IVar="10" Cut="8.4018468623980880e-04" cType="1" res="-9.9000000000000000e+01" rms="0.0000000000000000e+00" purity="3.9549985527992249e-01" nType="0">
          <Node pos="l" depth="2" NCoef="0" IVar="5" Cut="1.4240039587020874e+00" cType="1" res="-9.9000000000000000e+01" rms="0.0000000000000000e+00" purity="4.6701887249946594e-01" nType="0">
            <Node pos="l" depth="3" NCoef="0" IVar="-1" Cut="0.0000000000000000e+00" cType="1" res="-9.9000000000000000e+01" rms="0.0000000000000000e+00" purity="7.3374038934707642e-01" nType="1"/>
            <Node pos="r" depth="3" NCoef="0" IVar="10" Cut="1.5288637951016426e-04" cType="1" res="-9.9000000000000000e+01" rms="0.0000000000000000e+00" purity="4.0223339200019836e-01" nType="0">
              <Node pos="l" depth="4" NCoef="0" IVar="-1" Cut="0.0000000000000000e+00" cType="1" res="-9.9000000000000000e+01" rms="0.0000000000000000e+00" purity="6.2368500232696533e-01" nType="1"/>
              <Node pos="r" depth="4" NCoef="0" IVar="-1" Cut="2.0129761695861816e+00" cType="1" res="-9.9000000000000000e+01" rms="0.0000000000000000e+00" purity="3.1891795992851257e-01" nType="-1"/>
            </Node>
          </Node>
          <Node pos="r" depth="2" NCoef="0" IVar="7" Cut="4.0785560011863708e-01" cType="1" res="-9.9000000000000000e+01" rms="0.0000000000000000e+00" purity="2.5968667864799500e-01" nType="0">
            <Node pos="l" depth="3" NCoef="0" IVar="10" Cut="1.4284226344898343e-03" cType="1" res="-9.9000000000000000e+01" rms="0.0000000000000000e+00" purity="3.3107697963714600e-01" nType="0">
              <Node pos="l" depth="4" NCoef="0" IVar="3" Cut="9.5234051346778870e-02" cType="0" res="-9.9000000000000000e+01" rms="0.0000000000000000e+00" purity="4.3230623006820679e-01" nType="0">
                <Node pos="l" depth="5" NCoef="0" IVar="-1" Cut="0.0000000000000000e+00" cType="1" res="-9.9000000000000000e+01" rms="0.0000000000000000e+00" purity="5.3183418512344360e-01" nType="1"/>
                <Node pos="r" depth="5" NCoef="0" IVar="-1" Cut="0.0000000000000000e+00" cType="1" res="-9.9000000000000000e+01" rms="0.0000000000000000e+00" purity="3.0495125055313110e-01" nType="-1"/>
              </Node>
              <Node pos="r" depth="4" NCoef="0" IVar="-1" Cut="6.8853253126144409e-01" cType="1" res="-9.9000000000000000e+01" rms="0.0000000000000000e+00" purity="2.1374359726905823e-01" nType="-1"/>
            </Node>
            <Node pos="r" depth="3" NCoef="0" IVar="-1" Cut="4.8137894272804260e-01" cType="1" res="-9.9000000000000000e+01" rms="0.0000000000000000e+00" purity="1.0654249042272568e-01" nType="-1"/>
          </Node>
        </Node>
      </Node>
    </BinaryTree>
    <BinaryTree type="DecisionTree" boostWeight="3.7728177924707246e-01" itree="7">
      <Node pos="s" depth="0" NCoef="0" IVar="7" Cut="3.1801059842109680e-01" cType="1" res="-9.9000000000000000e+01" rms="0.0000000000000000e+00" purity="5.0605940818786621e-01" nType="0">
        <Node pos="l" depth="1" NCoef="0" IVar="5" Cut="1.4109781980514526e+00" cType="1" res="-9.9000000000000000e+01" rms="0.0000000000000000e+00" purity="6.1752593517303467e-01" nType="0">
          <Node pos="l" depth="2" NCoef="0" IVar="-1" Cut="1.2053816765546799e-01" cType="1" res="-9.9000000000000000e+01" rms="0.0000000000000000e+00" purity="7.9288738965988159e-01" nType="1"/>
          <Node pos="r" depth="2" NCoef="0" IVar="11" Cut="3.5542291589081287e-03" cType="1" res="-9.9000000000000000e+01" rms="0.0000000000000000e+00" purity="5.2759891748428345e-01" nType="0">
            <Node pos="l" depth="3" NCoef="0" IVar="-1" Cut="0.0000000000000000e+00" cType="1" res="-9.9000000000000000e+01" rms="0.0000000000000000e+00" purity="7.0262145996093750e-01" nType="1"/>
            <Node pos="r" depth="3" NCoef="0" IVar="9" Cut="8.2732528448104858e-01" cType="1" res="-9.9000000000000000e+01" rms="0.0000000000000000e+00" purity="4.4846224784851074e-01" nType="0">
              <Node pos="l" depth="4" NCoef="0" IVar="5" Cut="1.5849239826202393e+00" cType="1" res="-9.9000000000000000e+01" rms="0.0000000000000000e+00" purity="5.6475681066513062e-01" nType="0">
                <Node pos="l" depth="5" NCoef="0" IVar="-1" Cut="0.0000000000000000e+00" cType="1" res="-9.9000000000000000e+01" rms="0.0000000000000000e+00" purity="6.3533264398574829e-01" nType="1"/>
                <Node pos="r" depth="5" NCoef="0" IVar="-1" Cut="0.0000000000000000e+00" cType="1" res="-9.9000000000000000e+01" rms="0.0000000000000000e+00" purity="4.8058694601058960e-01" nType="-1"/>
              </Node>
              <Node pos="r" depth="4" NCoef="0" IVar="-1" Cut="1.5859102010726929e+00" cType="1" res="-9.9000000000000000e+01" rms="0.0000000000000000e+00" purity="3.6872684955596924e-01" nType="-1"/>
            </Node>
          </Node>
        </Node>
        <Node pos="r" depth="1" NCoef="0" IVar="9" Cut="8.4660851955413818e-01" cType="1" res="-9.9000000000000000e+01" rms="0.0000000000000000e+00" purity="3.7974476814270020e-01" nType="0">
          <Node pos="l" depth="2" NCoef="0" IVar="7" Cut="5.0057995319366455e-01" cType="1" res="-9.9000000000000000e+01" rms="0.0000000000000000e+00" purity="4.5682081580162048e-01" nType="0">
            <Node pos="l" depth="3" NCoef="0" IVar="10" Cut="2.2966910619288683e-03" cType="1" res="-9.9000000000000000e+01" rms="0.0000000000000000e+00" purity="5.0298017263412476e-01" nType="0">
              <Node pos="l" depth="4" NCoef="0" IVar="9" Cut="7.3784917593002319e-01" cType="1" res="-9.9000000000000000e+01" rms="0.0000000000000000e+00" purity="5.3183376789093018e-01" nType="0">
                <Node pos="l" depth="5" NCoef="0" IVar="-1" Cut="0.0000000000000000e+00" cType="1" res="-9.9000000000000000e+01" rms="0.0000000000000000e+00" purity="6.6574722528457642e-01" nType="1"/>
                <Node pos="r" depth="5" NCoef="0" IVar="-1" Cut="0.0000000000000000e+00" cType="1" res="-9.9000000000000000e+01" rms="0.0000000000000000e+00" purity="4.6941331028938293e-01" nType="-1"/>
              </Node>
              <Node pos="r" depth="4" NCoef="0" IVar="-1" Cut="0.0000000000000000e+00" cType="1" res="-9.9000000000000000e+01" rms="0.0000000000000000e+00" purity="2.8782859444618225e-01" nType="-1"/>
            </Node>
            <Node pos="r" depth="3" NCoef="0" IVar="-1" Cut="3.7592017650604248e-01" cType="1" res="-9.9000000000000000e+01" rms="0.0000000000000000e+00" purity="2.6346898078918457e-01" nType="-1"/>
          </Node>
          <Node pos="r" depth="2" NCoef="0" IVar="-1" Cut="7.2500912938266993e-04" cType="1" res="-9.9000000000000000e+01" rms="0.0000000000000000e+00" purity="2.5156861543655396e-01" nType="-1"/>
        </Node>
      </Node>
    </BinaryTree>
    <BinaryTree type="DecisionTree" boostWeight="4.1871222078084991e-01" itree="8">
      <Node pos="s" depth="0" NCoef="0" IVar="0" Cut="-9.0799598693847656e+01" cType="0" res="-9.9000000000000000e+01" rms="0.0000000000000000e+00" purity="5.1206672191619873e-01" nType="0">
        <Node pos="l" depth="1" NCoef="0" IVar="0" Cut="6.5732771158218384e-01" cType="0" res="-9.9000000000000000e+01" rms="0.0000000000000000e+00" purity="6.4022582769393921e-01" nType="0">
          <Node pos="l" depth="2" NCoef="0" IVar="-1" Cut="0.0000000000000000e+00" cType="1" res="-9.9000000000000000e+01" rms="0.0000000000000000e+00" purity="9.1162455081939697e-01" nType="1"/>
          <Node pos="r" depth="2" NCoef="0" IVar="-1" Cut="7.8893560171127319e-01" cType="1" res="-9.9000000000000000e+01" rms="0.0000000000000000e+00" purity="3.8768962025642395e-01" nType="-1"/>
        </Node>
        <Node pos="r" depth="1" NCoef="0" IVar="10" Cut="1.4709274983033538e-03" cType="1" res="-9.9000000000000000e+01" rms="0.0000000000000000e+00" purity="4.1083997488021851e-01" nType="0">
          <Node pos="l" depth="2" NCoef="0" IVar="8" Cut="8.0799615383148193e-01" cType="1" res="-9.9000000000000000e+01" rms="0.0000000000000000e+00" purity="4.4884440302848816e-01" nType="0">
            <Node pos="l" depth="3" NCoef="0" IVar="9" Cut="8.2445520162582397e-01" cType="1" res="-9.9000000000000000e+01" rms="0.0000000000000000e+00" purity="5.0559753179550171e-01" nType="0">
              <Node pos="l" depth="4" NCoef="0" IVar="5" Cut="1.6965924501419067e+00" cType="1" res="-9.9000000000000000e+01" rms="0.0000000000000000e+00" purity="5.9112936258316040e-01" nType="0">
                <Node pos="l" depth="5" NCoef="0" IVar="-1" Cut="0.0000000000000000e+00" cType="1" res="-9.9000000000000000e+01" rms="0.0000000000000000e+00" purity="6.3453984260559082e-01" nType="1"/>
                <Node pos="r" depth="5" NCoef="0" IVar="-1" Cut="0.0000000000000000e+00" cType="1" res="-9.9000000000000000e+01" rms="0.0000000000000000e+00" purity="4.9084481596946716e-01" nType="-1"/>
              </Node>
              <Node pos="r" depth="4" NCoef="0" IVar="7" Cut="2.8372451663017273e-01" cType="1" res="-9.9000000000000000e+01" rms="0.0000000000000000e+00" purity="4.2527142167091370e-01" nType="0">
                <Node pos="l" depth="5" NCoef="0" IVar="-1" Cut="0.0000000000000000e+00" cType="1" res="-9.9000000000000000e+01" rms="0.0000000000000000e+00" purity="5.1733136177062988e-01" nType="1"/>
                <Node pos="r" depth="5" NCoef="0" IVar="-1" Cut="0.0000000000000000e+00" cType="1" res="-9.9000000000000000e+01" rms="0.0000000000000000e+00" purity="3.4592565894126892e-01" nType="-1"/>
              </Node>
            </Node>
            <Node pos="r" depth="3" NCoef="0" IVar="-1" Cut="3.3241024613380432e-01" cType="1" res="-9.9000000000000000e+01" rms="0.0000000000000000e+00" purity="2.8853783011436462e-01" nType="-1"/>
          </Node>
          <Node pos="r" depth="2" NCoef="0" IVar="-1" Cut="2.0726707298308611e-03" cType="1" res="-9.9000000000000000e+01" rms="0.0000000000000000e+00" purity="1.9211119413375854e-01" nType="-1"/>
        </Node>
      </Node>
    </BinaryTree>
    <BinaryTree type="DecisionTree" boostWeight="3.6824812196199580e-01" itree="9">
      <Node pos="s" depth="0" NCoef="0" IVar="0" Cut="-9.0799598693847656e+01" cType="0" res="-9.9000000000000000e+01" rms="0.0000000000000000e+00" purity="5.2726954221725464e-01" nType="0">
        <Node pos="l" depth="1" NCoef="0" IVar="0" Cut="6.5725642442703247e-01" cType="0" res="-9.9000000000000000e+01" rms="0.0000000000000000e+00" purity="6.5413916110992432e-01" nType="0">
          <Node pos="l" depth="2" NCoef="0" IVar="-1" Cut="0.0000000000000000e+00" cType="1" res="-9.9000000000000000e+01" rms="0.0000000000000000e+00" purity="8.9007979631423950e-01" nType="1"/>
          <Node pos="r" depth="2" NCoef="0" IVar="0" Cut="6.0386840254068375e-02" cType="0" res="-9.9000000000000000e+01" rms="0.0000000000000000e+00" purity="4.5212420821189880e-01" nType="0">
            <Node pos="l" depth="3" NCoef="0" IVar="1" Cut="2.1872135996818542e-01" cType="1" res="-9.9000000000000000e+01" rms="0.0000000000000000e+00" purity="5.0983524322509766e-01" nType="0">
              <Node pos="l" depth="4" NCoef="0" IVar="-1" Cut="0.0000000000000000e+00" cType="1" res="-9.9000000000000000e+01" rms="0.0000000000000000e+00" purity="6.2371629476547241e-01" nType="1"/>
              <Node pos="r" depth="4" NCoef="0" IVar="-1" Cut="8.4127467870712280e-01" cType="1" res="-9.9000000000000000e+01" rms="0.0000000000000000e+00" purity="4.1595062613487244e-01" nType="-1"/>
            </Node>
            <Node pos="r" depth="3" NCoef="0" IVar="-1" Cut="7.4496620800346136e-04" cType="1" res="-9.9000000000000000e+01" rms="0.0000000000000000e+00" purity="3.1059786677360535e-01" nType="-1"/>
          </Node>
        </Node>
        <Node pos="r" depth="1" NCoef="0" IVar="10" Cut="8.4010220598429441e-04" cType="1" res="-9.9000000000000000e+01" rms="0.0000000000000000e+00" purity="4.2929318547248840e-01" nType="0">
          <Node pos="l" depth="2" NCoef="0" IVar="9" Cut="8.6980593204498291e-01" cType="1" res="-9.9000000000000000e+01" rms="0.0000000000000000e+00" purity="4.9072805047035217e-01" nType="0">
            <Node pos="l" depth="3" NCoef="0" IVar="7" Cut="4.7823107242584229e-01" cType="1" res="-9.9000000000000000e+01" rms="0.0000000000000000e+00" purity="5.3614538908004761e-01" nType="0">
              <Node pos="l" depth="4" NCoef="0" IVar="-1" Cut="2.3115150630474091e-01" cType="1" res="-9.9000000000000000e+01" rms="0.0000000000000000e+00" purity="5.6066447496414185e-01" nType="1"/>
              <Node pos="r" depth="4" NCoef="0" IVar="-1" Cut="0.0000000000000000e+00" cType="1" res="-9.9000000000000000e+01" rms="0.0000000000000000e+00" purity="3.8558778166770935e-01" nType="-1"/>
            </Node>
            <Node pos="r" depth="3" NCoef="0" IVar="-1" Cut="7.7268284559249878e-01" cType="1" res="-9.9000000000000000e+01" rms="0.0000000000000000e+00" purity="3.7867277860641479e-01" nType="-1"/>
          </Node>
          <Node pos="r" depth="2" NCoef="0" IVar="-1" Cut="4.0790319442749023e-01" cType="1" res="-9.9000000000000000e+01" rms="0.0000000000000000e+00" purity="3.0488038063049316e-01" nType="-1"/>
        </Node>
      </Node>
    </BinaryTree>
    <BinaryTree type="DecisionTree" boostWeight="3.5095507046234281e-01" itree="10">
      <Node pos="s" depth="0" NCoef="0" IVar="0" Cut="-9.0812545776367188e+01" cType="0" res="-9.9000000000000000e+01" rms="0.0000000000000000e+00" purity="5.2519387006759644e-01" nType="0">
        <Node pos="l" depth="1" NCoef="0" IVar="0" Cut="5.7965999841690063e-01" cType="0" res="-9.9000000000000000e+01" rms="0.0000000000000000e+00" purity="6.4321976900100708e-01" nType="0">
          <Node pos="l" depth="2" NCoef="0" IVar="-1" Cut="0.0000000000000000e+00" cType="1" res="-9.9000000000000000e+01" rms="0.0000000000000000e+00" purity="8.5062450170516968e-01" nType="1"/>
          <Node pos="r" depth="2" NCoef="0" IVar="2" Cut="3.3278053998947144e-01" cType="1" res="-9.9000000000000000e+01" rms="0.0000000000000000e+00" purity="4.4829249382019043e-01" nType="0">
            <Node pos="l" depth="3" NCoef="0" IVar="5" Cut="1.7967406511306763e+00" cType="1" res="-9.9000000000000000e+01" rms="0.0000000000000000e+00" purity="5.1603931188583374e-01" nType="0">
              <Node pos="l" depth="4" NCoef="0" IVar="5" Cut="1.5271139144897461e+00" cType="1" res="-9.9000000000000000e+01" rms="0.0000000000000000e+00" purity="5.5733156204223633e-01" nType="0">
                <Node pos="l" depth="5" NCoef="0" IVar="-1" Cut="0.0000000000000000e+00" cType="1" res="-9.9000000000000000e+01" rms="0.0000000000000000e+00" purity="6.3122683763504028e-01" nType="1"/>
                <Node pos="r" depth="5" NCoef="0" IVar="-1" Cut="0.0000000000000000e+00" cType="1" res="-9.9000000000000000e+01" rms="0.0000000000000000e+00" purity="4.4447940587997437e-01" nType="-1"/>
              </Node>
              <Node pos="r" depth="4" NCoef="0" IVar="-1" Cut="0.0000000000000000e+00" cType="1" res="-9.9000000000000000e+01" rms="0.0000000000000000e+00" purity="3.9902848005294800e-01" nType="-1"/>
            </Node>
            <Node pos="r" depth="3" NCoef="0" IVar="-1" Cut="1.0643311589956284e-01" cType="0" res="-9.9000000000000000e+01" rms="0.0000000000000000e+00" purity="3.4824723005294800e-01" nType="-1"/>
          </Node>
        </Node>
        <Node pos="r" depth="1" NCoef="0" IVar="7" Cut="3.9794138073921204e-01" cType="1" res="-9.9000000000000000e+01" rms="0.0000000000000000e+00" purity="4.3777513504028320e-01" nType="0">
          <Node pos="l" depth="2" NCoef="0" IVar="5" Cut="2.1064982414245605e+00" cType="1" res="-9.9000000000000000e+01" rms="0.0000000000000000e+00" purity="4.8466145992279053e-01" nType="0">
            <Node pos="l" depth="3" NCoef="0" IVar="11" Cut="1.4740447513759136e-02" cType="1" res="-9.9000000000000000e+01" rms="0.0000000000000000e+00" purity="5.0415652990341187e-01" nType="0">
              <Node pos="l" depth="4" NCoef="0" IVar="5" Cut="1.5475218296051025e+00" cType="1" res="-9.9000000000000000e+01" rms="0.0000000000000000e+00" purity="5.3190058469772339e-01" nType="0">
                <Node pos="l" depth="5" NCoef="0" IVar="-1" Cut="0.0000000000000000e+00" cType="1" res="-9.9000000000000000e+01" rms="0.0000000000000000e+00" purity="6.0173034667968750e-01" nType="1"/>
                <Node pos="r" depth="5" NCoef="0" IVar="-1" Cut="0.0000000000000000e+00" cType="1" res="-9.9000000000000000e+01" rms="0.0000000000000000e+00" purity="4.5881146192550659e-01" nType="-1"/>
              </Node>
              <Node pos="r" depth="4" NCoef="0" IVar="-1" Cut="3.3327540755271912e-01" cType="0" res="-9.9000000000000000e+01" rms="0.0000000000000000e+00" purity="3.5053262114524841e-01" nType="-1"/>
            </Node>
            <Node pos="r" depth="3" NCoef="0" IVar="-1" Cut="0.0000000000000000e+00" cType="1" res="-9.9000000000000000e+01" rms="0.0000000000000000e+00" purity="3.3894431591033936e-01" nType="-1"/>
          </Node>
          <Node pos="r" depth="2" NCoef="0" IVar="11" Cut="4.9981540068984032e-03" cType="1" res="-9.9000000000000000e+01" rms="0.0000000000000000e+00" purity="3.1456476449966431e-01" nType="0">
            <Node pos="l" depth="3" NCoef="0" IVar="10" Cut="2.6789447292685509e-04" cType="1" res="-9.9000000000000000e+01" rms="0.0000000000000000e+00" purity="4.3885400891304016e-01" nType="0">
              <Node pos="l" depth="4" NCoef="0" IVar="-1" Cut="0.0000000000000000e+00" cType="1" res="-9.9000000000000000e+01" rms="0.0000000000000000e+00" purity="5.1817959547042847e-01" nType="1"/>
              <Node pos="r" depth="4" NCoef="0" IVar="-1" Cut="0.0000000000000000e+00" cType="1" res="-9.9000000000000000e+01" rms="0.0000000000000000e+00" purity="3.2234179973602295e-01" nType="-1"/>
            </Node>
            <Node pos="r" depth="3" NCoef="0" IVar="-1" Cut="5.1081663370132446e-01" cType="1" res="-9.9000000000000000e+01" rms="0.0000000000000000e+00" purity="2.1094061434268951e-01" nType="-1"/>
          </Node>
        </Node>
      </Node>
    </BinaryTree>
    <BinaryTree type="DecisionTree" boostWeight="2.6788599809277103e-01" itree="11">
      <Node pos="s" depth="0" NCoef="0" IVar="0" Cut="-9.0812545776367188e+01" cType="0" res="-9.9000000000000000e+01" rms="0.0000000000000000e+00" purity="5.2777034044265747e-01" nType="0">
        <Node pos="l" depth="1" NCoef="0" IVar="0" Cut="5.7964801788330078e-01" cType="0" res="-9.9000000000000000e+01" rms="0.0000000000000000e+00" purity="6.3434934616088867e-01" nType="0">
          <Node pos="l" depth="2" NCoef="0" IVar="-1" Cut="0.0000000000000000e+00" cType="1" res="-9.9000000000000000e+01" rms="0.0000000000000000e+00" purity="8.2041019201278687e-01" nType="1"/>
          <Node pos="r" depth="2" NCoef="0" IVar="11" Cut="5.0264508463442326e-03" cType="1" res="-9.9000000000000000e+01" rms="0.0000000000000000e+00" purity="4.6919572353363037e-01" nType="0">
            <Node pos="l" depth="3" NCoef="0" IVar="-1" Cut="0.0000000000000000e+00" cType="1" res="-9.9000000000000000e+01" rms="0.0000000000000000e+00" purity="5.7281076908111572e-01" nType="1"/>
            <Node pos="r" depth="3" NCoef="0" IVar="0" Cut="5.3477637469768524e-02" cType="0" res="-9.9000000000000000e+01" rms="0.0000000000000000e+00" purity="4.3108281493186951e-01" nType="0">
              <Node pos="l" depth="4" NCoef="0" IVar="5" Cut="1.5627417564392090e+00" cType="1" res="-9.9000000000000000e+01" rms="0.0000000000000000e+00" purity="4.7297897934913635e-01" nType="0">
                <Node pos="l" depth="5" NCoef="0" IVar="-1" Cut="0.0000000000000000e+00" cType="1" res="-9.9000000000000000e+01" rms="0.0000000000000000e+00" purity="5.3411626815795898e-01" nType="1"/>
                <Node pos="r" depth="5" NCoef="0" IVar="-1" Cut="0.0000000000000000e+00" cType="1" res="-9.9000000000000000e+01" rms="0.0000000000000000e+00" purity="3.6027991771697998e-01" nType="-1"/>
              </Node>
              <Node pos="r" depth="4" NCoef="0" IVar="-1" Cut="0.0000000000000000e+00" cType="1" res="-9.9000000000000000e+01" rms="0.0000000000000000e+00" purity="3.2296618819236755e-01" nType="-1"/>
            </Node>
          </Node>
        </Node>
        <Node pos="r" depth="1" NCoef="0" IVar="7" Cut="5.4682779312133789e-01" cType="1" res="-9.9000000000000000e+01" rms="0.0000000000000000e+00" purity="4.5168918371200562e-01" nType="0">
          <Node pos="l" depth="2" NCoef="0" IVar="11" Cut="1.0984709486365318e-02" cType="1" res="-9.9000000000000000e+01" rms="0.0000000000000000e+00" purity="4.6844887733459473e-01" nType="0">
            <Node pos="l" depth="3" NCoef="0" IVar="10" Cut="1.5319966769311577e-04" cType="1" res="-9.9000000000000000e+01" rms="0.0000000000000000e+00" purity="4.9805644154548645e-01" nType="0">
              <Node pos="l" depth="4" NCoef="0" IVar="-1" Cut="0.0000000000000000e+00" cType="1" res="-9.9000000000000000e+01" rms="0.0000000000000000e+00" purity="5.8747583627700806e-01" nType="1"/>
              <Node pos="r" depth="4" NCoef="0" IVar="-1" Cut="1.9632675647735596e+00" cType="1" res="-9.9000000000000000e+01" rms="0.0000000000000000e+00" purity="4.6952962875366211e-01" nType="-1"/>
            </Node>
            <Node pos="r" depth="3" NCoef="0" IVar="8" Cut="6.7347800731658936e-01" cType="1" res="-9.9000000000000000e+01" rms="0.0000000000000000e+00" purity="3.7214195728302002e-01" nType="0">
              <Node pos="l" depth="4" NCoef="0" IVar="4" Cut="1.4009871482849121e+00" cType="1" res="-9.9000000000000000e+01" rms="0.0000000000000000e+00" purity="4.6628960967063904e-01" nType="0">
                <Node pos="l" depth="5" NCoef="0" IVar="-1" Cut="0.0000000000000000e+00" cType="1" res="-9.9000000000000000e+01" rms="0.0000000000000000e+00" purity="5.1654040813446045e-01" nType="1"/>
                <Node pos="r" depth="5" NCoef="0" IVar="-1" Cut="0.0000000000000000e+00" cType="1" res="-9.9000000000000000e+01" rms="0.0000000000000000e+00" purity="3.9093390107154846e-01" nType="-1"/>
              </Node>
              <Node pos="r" depth="4" NCoef="0" IVar="-1" Cut="8.2287818193435669e-01" cType="1" res="-9.9000000000000000e+01" rms="0.0000000000000000e+00" purity="2.7067178487777710e-01" nType="-1"/>
            </Node>
          </Node>
          <Node pos="r" depth="2" NCoef="0" IVar="-1" Cut="0.0000000000000000e+00" cType="1" res="-9.9000000000000000e+01" rms="0.0000000000000000e+00" purity="1.2615777552127838e-01" nType="-1"/>
        </Node>
      </Node>
    </BinaryTree>
    <BinaryTree type="DecisionTree" boostWeight="2.7399180623769376e-01" itree="12">
      <Node pos="s" depth="0" NCoef="0" IVar="0" Cut="-9.0818183898925781e+01" cType="0" res="-9.9000000000000000e+01" rms="0.0000000000000000e+00" purity="5.3010070323944092e-01" nType="0">
        <Node pos="l" depth="1" NCoef="0" IVar="0" Cut="6.3676011562347412e-01" cType="0" res="-9.9000000000000000e+01" rms="0.0000000000000000e+00" purity="6.2516677379608154e-01" nType="0">
          <Node pos="l" depth="2" NCoef="0" IVar="-1" Cut="0.0000000000000000e+00" cType="1" res="-9.9000000000000000e+01" rms="0.0000000000000000e+00" purity="8.1910061836242676e-01" nType="1"/>
          <Node pos="r" depth="2" NCoef="0" IVar="9" Cut="8.2954883575439453e-01" cType="1" res="-9.9000000000000000e+01" rms="0.0000000000000000e+00" purity="4.7861954569816589e-01" nType="0">
            <Node pos="l" depth="3" NCoef="0" IVar="7" Cut="3.9943295717239380e-01" cType="1" res="-9.9000000000000000e+01" rms="0.0000000000000000e+00" purity="5.4559618234634399e-01" nType="0">
              <Node pos="l" depth="4" NCoef="0" IVar="-1" Cut="0.0000000000000000e+00" cType="1" res="-9.9000000000000000e+01" rms="0.0000000000000000e+00" purity="5.9393739700317383e-01" nType="1"/>
              <Node pos="r" depth="4" NCoef="0" IVar="-1" Cut="0.0000000000000000e+00" cType="1" res="-9.9000000000000000e+01" rms="0.0000000000000000e+00" purity="4.5250132679939270e-01" nType="-1"/>
            </Node>
            <Node pos="r" depth="3" NCoef="0" IVar="-1" Cut="8.1893138121813536e-04" cType="1" res="-9.9000000000000000e+01" rms="0.0000000000000000e+00" purity="3.9077699184417725e-01" nType="-1"/>
          </Node>
        </Node>
        <Node pos="r" depth="1" NCoef="0" IVar="7" Cut="5.2932065725326538e-01" cType="1" res="-9.9000000000000000e+01" rms="0.0000000000000000e+00" purity="4.5972871780395508e-01" nType="0">
          <Node pos="l" depth="2" NCoef="0" IVar="10" Cut="8.4005005192011595e-04" cType="1" res="-9.9000000000000000e+01" rms="0.0000000000000000e+00" purity="4.7921618819236755e-01" nType="0">
            <Node pos="l" depth="3" NCoef="0" IVar="5" Cut="2.2034296989440918e+00" cType="1" res="-9.9000000000000000e+01" rms="0.0000000000000000e+00" purity="5.1479923725128174e-01" nType="0">
              <Node pos="l" depth="4" NCoef="0" IVar="10" Cut="3.8184327422641218e-04" cType="1" res="-9.9000000000000000e+01" rms="0.0000000000000000e+00" purity="5.4052120447158813e-01" nType="0">
                <Node pos="l" depth="5" NCoef="0" IVar="-1" Cut="0.0000000000000000e+00" cType="1" res="-9.9000000000000000e+01" rms="0.0000000000000000e+00" purity="5.8345681428909302e-01" nType="1"/>
                <Node pos="r" depth="5" NCoef="0" IVar="-1" Cut="0.0000000000000000e+00" cType="1" res="-9.9000000000000000e+01" rms="0.0000000000000000e+00" purity="4.8441851139068604e-01" nType="-1"/>
              </Node>
              <Node pos="r" depth="4" NCoef="0" IVar="-1" Cut="0.0000000000000000e+00" cType="1" res="-9.9000000000000000e+01" rms="0.0000000000000000e+00" purity="3.6929222941398621e-01" nType="-1"/>
            </Node>
            <Node pos="r" depth="3" NCoef="0" IVar="9" Cut="8.8391542434692383e-01" cType="1" res="-9.9000000000000000e+01" rms="0.0000000000000000e+00" purity="4.0352016687393188e-01" nType="0">
              <Node pos="l" depth="4" NCoef="0" IVar="8" Cut="7.6583951711654663e-01" cType="1" res="-9.9000000000000000e+01" rms="0.0000000000000000e+00" purity="4.5476010441780090e-01" nType="0">
                <Node pos="l" depth="5" NCoef="0" IVar="-1" Cut="0.0000000000000000e+00" cType="1" res="-9.9000000000000000e+01" rms="0.0000000000000000e+00" purity="5.0229239463806152e-01" nType="1"/>
                <Node pos="r" depth="5" NCoef="0" IVar="-1" Cut="0.0000000000000000e+00" cType="1" res="-9.9000000000000000e+01" rms="0.0000000000000000e+00" purity="3.2053497433662415e-01" nType="-1"/>
              </Node>
              <Node pos="r" depth="4" NCoef="0" IVar="-1" Cut="0.0000000000000000e+00" cType="1" res="-9.9000000000000000e+01" rms="0.0000000000000000e+00" purity="2.2267641127109528e-01" nType="-1"/>
            </Node>
          </Node>
          <Node pos="r" depth="2" NCoef="0" IVar="-1" Cut="0.0000000000000000e+00" cType="1" res="-9.9000000000000000e+01" rms="0.0000000000000000e+00" purity="1.6329789161682129e-01" nType="-1"/>
        </Node>
      </Node>
    </BinaryTree>
    <BinaryTree type="DecisionTree" boostWeight="2.2161324173561003e-01" itree="13">
      <Node pos="s" depth="0" NCoef="0" IVar="5" Cut="1.3814094066619873e+00" cType="1" res="-9.9000000000000000e+01" rms="0.0000000000000000e+00" purity="5.4170632362365723e-01" nType="0">
        <Node pos="l" depth="1" NCoef="0" IVar="11" Cut="1.5721125528216362e-02" cType="1" res="-9.9000000000000000e+01" rms="0.0000000000000000e+00" purity="6.8745762109756470e-01" nType="0">
          <Node pos="l" depth="2" NCoef="0" IVar="-1" Cut="0.0000000000000000e+00" cType="1" res="-9.9000000000000000e+01" rms="0.0000000000000000e+00" purity="7.5230193138122559e-01" nType="1"/>
          <Node pos="r" depth="2" NCoef="0" IVar="-1" Cut="0.0000000000000000e+00" cType="1" res="-9.9000000000000000e+01" rms="0.0000000000000000e+00" purity="4.9821051955223083e-01" nType="-1"/>
        </Node>
        <Node pos="r" depth="1" NCoef="0" IVar="7" Cut="5.4851740598678589e-01" cType="1" res="-9.9000000000000000e+01" rms="0.0000000000000000e+00" purity="5.0447809696197510e-01" nType="0">
          <Node pos="l" depth="2" NCoef="0" IVar="0" Cut="-9.0799598693847656e+01" cType="0" res="-9.9000000000000000e+01" rms="0.0000000000000000e+00" purity="5.1751381158828735e-01" nType="0">
            <Node pos="l" depth="3" NCoef="0" IVar="11" Cut="4.4287275522947311e-03" cType="1" res="-9.9000000000000000e+01" rms="0.0000000000000000e+00" purity="5.9000015258789062e-01" nType="0">
              <Node pos="l" depth="4" NCoef="0" IVar="-1" Cut="0.0000000000000000e+00" cType="1" res="-9.9000000000000000e+01" rms="0.0000000000000000e+00" purity="7.1927505731582642e-01" nType="1"/>
              <Node pos="r" depth="4" NCoef="0" IVar="5" Cut="1.5453752279281616e+00" cType="1" res="-9.9000000000000000e+01" rms="0.0000000000000000e+00" purity="5.3022706508636475e-01" nType="0">
                <Node pos="l" depth="5" NCoef="0" IVar="-1" Cut="0.0000000000000000e+00" cType="1" res="-9.9000000000000000e+01" rms="0.0000000000000000e+00" purity="5.8995926380157471e-01" nType="1"/>
                <Node pos="r" depth="5" NCoef="0" IVar="-1" Cut="0.0000000000000000e+00" cType="1" res="-9.9000000000000000e+01" rms="0.0000000000000000e+00" purity="4.7048342227935791e-01" nType="-1"/>
              </Node>
            </Node>
            <Node pos="r" depth="3" NCoef="0" IVar="11" Cut="9.2272339388728142e-03" cType="1" res="-9.9000000000000000e+01" rms="0.0000000000000000e+00" purity="4.6944078803062439e-01" nType="0">
              <Node pos="l" depth="4" NCoef="0" IVar="5" Cut="2.2498147487640381e+00" cType="1" res="-9.9000000000000000e+01" rms="0.0000000000000000e+00" purity="5.0323009490966797e-01" nType="0">
                <Node pos="l" depth="5" NCoef="0" IVar="-1" Cut="0.0000000000000000e+00" cType="1" res="-9.9000000000000000e+01" rms="0.0000000000000000e+00" purity="5.2404594421386719e-01" nType="1"/>
                <Node pos="r" depth="5" NCoef="0" IVar="-1" Cut="0.0000000000000000e+00" cType="1" res="-9.9000000000000000e+01" rms="0.0000000000000000e+00" purity="3.7321761250495911e-01" nType="-1"/>
              </Node>
              <Node pos="r" depth="4" NCoef="0" IVar="-1" Cut="8.1782382726669312e-01" cType="1" res="-9.9000000000000000e+01" rms="0.0000000000000000e+00" purity="3.8207438588142395e-01" nType="-1"/>
            </Node>
          </Node>
          <Node pos="r" depth="2" NCoef="0" IVar="-1" Cut="0.0000000000000000e+00" cType="1" res="-9.9000000000000000e+01" rms="0.0000000000000000e+00" purity="2.3773142695426941e-01" nType="-1"/>
        </Node>
      </Node>
    </BinaryTree>
    <BinaryTree type="DecisionTree" boostWeight="2.2216289908901396e-01" itree="14">
      <Node pos="s" depth="0" NCoef="0" IVar="0" Cut="-9.0799598693847656e+01" cType="0" res="-9.9000000000000000e+01" rms="0.0000000000000000e+00" purity="5.2647817134857178e-01" nType="0">
        <Node pos="l" depth="1" NCoef="0" IVar="0" Cut="5.4783147573471069e-01" cType="0" res="-9.9000000000000000e+01" rms="0.0000000000000000e+00" purity="6.1529260873794556e-01" nType="0">
          <Node pos="l" depth="2" NCoef="0" IVar="-1" Cut="0.0000000000000000e+00" cType="1" res="-9.9000000000000000e+01" rms="0.0000000000000000e+00" purity="7.7203762531280518e-01" nType="1"/>
          <Node pos="r" depth="2" NCoef="0" IVar="6" Cut="6.1569249629974365e-01" cType="1" res="-9.9000000000000000e+01" rms="0.0000000000000000e+00" purity="4.8511627316474915e-01" nType="0">
            <Node pos="l" depth="3" NCoef="0" IVar="11" Cut="1.4920453540980816e-02" cType="1" res="-9.9000000000000000e+01" rms="0.0000000000000000e+00" purity="5.1702451705932617e-01" nType="0">
              <Node pos="l" depth="4" NCoef="0" IVar="8" Cut="7.7268761396408081e-01" cType="1" res="-9.9000000000000000e+01" rms="0.0000000000000000e+00" purity="5.5533915758132935e-01" nType="0">
                <Node pos="l" depth="5" NCoef="0" IVar="-1" Cut="0.0000000000000000e+00" cType="1" res="-9.9000000000000000e+01" rms="0.0000000000000000e+00" purity="5.9693628549575806e-01" nType="1"/>
                <Node pos="r" depth="5" NCoef="0" IVar="-1" Cut="0.0000000000000000e+00" cType="1" res="-9.9000000000000000e+01" rms="0.0000000000000000e+00" purity="4.9692916870117188e-01" nType="-1"/>
              </Node>
              <Node pos="r" depth="4" NCoef="0" IVar="-1" Cut="0.0000000000000000e+00" cType="1" res="-9.9000000000000000e+01" rms="0.0000000000000000e+00" purity="4.1557690501213074e-01" nType="-1"/>
            </Node>
            <Node pos="r" depth="3" NCoef="0" IVar="-1" Cut="0.0000000000000000e+00" cType="1" res="-9.9000000000000000e+01" rms="0.0000000000000000e+00" purity="3.7396547198295593e-01" nType="-1"/>
          </Node>
        </Node>
        <Node pos="r" depth="1" NCoef="0" IVar="10" Cut="2.2055674344301224e-03" cType="1" res="-9.9000000000000000e+01" rms="0.0000000000000000e+00" purity="4.6405732631683350e-01" nType="0">
          <Node pos="l" depth="2" NCoef="0" IVar="9" Cut="8.9695644378662109e-01" cType="1" res="-9.9000000000000000e+01" rms="0.0000000000000000e+00" purity="4.7728952765464783e-01" nType="0">
            <Node pos="l" depth="3" NCoef="0" IVar="6" Cut="7.0877516269683838e-01" cType="1" res="-9.9000000000000000e+01" rms="0.0000000000000000e+00" purity="4.9814265966415405e-01" nType="0">
              <Node pos="l" depth="4" NCoef="0" IVar="8" Cut="8.7293422222137451e-01" cType="1" res="-9.9000000000000000e+01" rms="0.0000000000000000e+00" purity="5.0869113206863403e-01" nType="0">
                <Node pos="l" depth="5" NCoef="0" IVar="-1" Cut="0.0000000000000000e+00" cType="1" res="-9.9000000000000000e+01" rms="0.0000000000000000e+00" purity="5.2348130941390991e-01" nType="1"/>
                <Node pos="r" depth="5" NCoef="0" IVar="-1" Cut="0.0000000000000000e+00" cType="1" res="-9.9000000000000000e+01" rms="0.0000000000000000e+00" purity="3.3190596103668213e-01" nType="-1"/>
              </Node>
              <Node pos="r" depth="4" NCoef="0" IVar="-1" Cut="0.0000000000000000e+00" cType="1" res="-9.9000000000000000e+01" rms="0.0000000000000000e+00" purity="3.3995085954666138e-01" nType="-1"/>
            </Node>
            <Node pos="r" depth="3" NCoef="0" IVar="-1" Cut="3.0792516469955444e-01" cType="1" res="-9.9000000000000000e+01" rms="0.0000000000000000e+00" purity="3.4650382399559021e-01" nType="-1"/>
          </Node>
          <Node pos="r" depth="2" NCoef="0" IVar="-1" Cut="0.0000000000000000e+00" cType="1" res="-9.9000000000000000e+01" rms="0.0000000000000000e+00" purity="2.2820372879505157e-01" nType="-1"/>
        </Node>
      </Node>
    </BinaryTree>
    <BinaryTree type="DecisionTree" boostWeight="2.6813088528449430e-01" itree="15">
      <Node pos="s" depth="0" NCoef="0" IVar="0" Cut="-9.0799598693847656e+01" cType="0" res="-9.9000000000000000e+01" rms="0.0000000000000000e+00" purity="5.1596456766128540e-01" nType="0">
        <Node pos="l" depth="1" NCoef="0" IVar="0" Cut="6.5725642442703247e-01" cType="0" res="-9.9000000000000000e+01" rms="0.0000000000000000e+00" purity="6.0197180509567261e-01" nType="0">
          <Node pos="l" depth="2" NCoef="0" IVar="-1" Cut="0.0000000000000000e+00" cType="1" res="-9.9000000000000000e+01" rms="0.0000000000000000e+00" purity="7.7379143238067627e-01" nType="1"/>
          <Node pos="r" depth="2" NCoef="0" IVar="9" Cut="8.4523892402648926e-01" cType="1" res="-9.9000000000000000e+01" rms="0.0000000000000000e+00" purity="4.8299109935760498e-01" nType="0">
            <Node pos="l" depth="3" NCoef="0" IVar="0" Cut="6.0855817049741745e-02" cType="0" res="-9.9000000000000000e+01" rms="0.0000000000000000e+00" purity="5.2369141578674316e-01" nType="0">
              <Node pos="l" depth="4" NCoef="0" IVar="9" Cut="7.9460227489471436e-01" cType="1" res="-9.9000000000000000e+01" rms="0.0000000000000000e+00" purity="5.6766444444656372e-01" nType="0">
                <Node pos="l" depth="5" NCoef="0" IVar="-1" Cut="0.0000000000000000e+00" cType="1" res="-9.9000000000000000e+01" rms="0.0000000000000000e+00" purity="6.0737842321395874e-01" nType="1"/>
                <Node pos="r" depth="5" NCoef="0" IVar="-1" Cut="0.0000000000000000e+00" cType="1" res="-9.9000000000000000e+01" rms="0.0000000000000000e+00" purity="4.8973616957664490e-01" nType="-1"/>
              </Node>
              <Node pos="r" depth="4" NCoef="0" IVar="-1" Cut="0.0000000000000000e+00" cType="1" res="-9.9000000000000000e+01" rms="0.0000000000000000e+00" purity="4.0681424736976624e-01" nType="-1"/>
            </Node>
            <Node pos="r" depth="3" NCoef="0" IVar="-1" Cut="7.1858899900689721e-04" cType="1" res="-9.9000000000000000e+01" rms="0.0000000000000000e+00" purity="4.0990981459617615e-01" nType="-1"/>
          </Node>
        </Node>
        <Node pos="r" depth="1" NCoef="0" IVar="11" Cut="1.0113274678587914e-02" cType="1" res="-9.9000000000000000e+01" rms="0.0000000000000000e+00" purity="4.5669612288475037e-01" nType="0">
          <Node pos="l" depth="2" NCoef="0" IVar="7" Cut="3.9772030711174011e-01" cType="1" res="-9.9000000000000000e+01" rms="0.0000000000000000e+00" purity="4.8639169335365295e-01" nType="0">
            <Node pos="l" depth="3" NCoef="0" IVar="3" Cut="8.8185757398605347e-02" cType="0" res="-9.9000000000000000e+01" rms="0.0000000000000000e+00" purity="5.2102106809616089e-01" nType="0">
              <Node pos="l" depth="4" NCoef="0" IVar="-1" Cut="0.0000000000000000e+00" cType="1" res="-9.9000000000000000e+01" rms="0.0000000000000000e+00" purity="6.4844143390655518e-01" nType="1"/>
              <Node pos="r" depth="4" NCoef="0" IVar="7" Cut="2.2841687500476837e-01" cType="1" res="-9.9000000000000000e+01" rms="0.0000000000000000e+00" purity="4.6440318226814270e-01" nType="0">
                <Node pos="l" depth="5" NCoef="0" IVar="-1" Cut="0.0000000000000000e+00" cType="1" res="-9.9000000000000000e+01" rms="0.0000000000000000e+00" purity="5.3051257133483887e-01" nType="1"/>
                <Node pos="r" depth="5" NCoef="0" IVar="-1" Cut="0.0000000000000000e+00" cType="1" res="-9.9000000000000000e+01" rms="0.0000000000000000e+00" purity="4.2515003681182861e-01" nType="-1"/>
              </Node>
            </Node>
            <Node pos="r" depth="3" NCoef="0" IVar="10" Cut="2.9307763907127082e-04" cType="1" res="-9.9000000000000000e+01" rms="0.0000000000000000e+00" purity="4.0102544426918030e-01" nType="0">
              <Node pos="l" depth="4" NCoef="0" IVar="-1" Cut="0.0000000000000000e+00" cType="1" res="-9.9000000000000000e+01" rms="0.0000000000000000e+00" purity="5.0872296094894409e-01" nType="1"/>
              <Node pos="r" depth="4" NCoef="0" IVar="-1" Cut="6.5260427072644234e-03" cType="1" res="-9.9000000000000000e+01" rms="0.0000000000000000e+00" purity="3.1963905692100525e-01" nType="-1"/>
            </Node>
          </Node>
          <Node pos="r" depth="2" NCoef="0" IVar="8" Cut="7.7818989753723145e-01" cType="1" res="-9.9000000000000000e+01" rms="0.0000000000000000e+00" purity="3.6632871627807617e-01" nType="0">
            <Node pos="l" depth="3" NCoef="0" IVar="7" Cut="2.8922522068023682e-01" cType="0" res="-9.9000000000000000e+01" rms="0.0000000000000000e+00" purity="3.9680221676826477e-01" nType="0">
              <Node pos="l" depth="4" NCoef="0" IVar="5" Cut="1.5461907386779785e+00" cType="0" res="-9.9000000000000000e+01" rms="0.0000000000000000e+00" purity="4.6414497494697571e-01" nType="0">
                <Node pos="l" depth="5" NCoef="0" IVar="-1" Cut="0.0000000000000000e+00" cType="1" res="-9.9000000000000000e+01" rms="0.0000000000000000e+00" purity="5.8767604827880859e-01" nType="1"/>
                <Node pos="r" depth="5" NCoef="0" IVar="-1" Cut="0.0000000000000000e+00" cType="1" res="-9.9000000000000000e+01" rms="0.0000000000000000e+00" purity="3.8173046708106995e-01" nType="-1"/>
              </Node>
              <Node pos="r" depth="4" NCoef="0" IVar="-1" Cut="0.0000000000000000e+00" cType="1" res="-9.9000000000000000e+01" rms="0.0000000000000000e+00" purity="3.0043521523475647e-01" nType="-1"/>
            </Node>
            <Node pos="r" depth="3" NCoef="0" IVar="-1" Cut="0.0000000000000000e+00" cType="1" res="-9.9000000000000000e+01" rms="0.0000000000000000e+00" purity="2.7034825086593628e-01" nType="-1"/>
          </Node>
        </Node>
      </Node>
    </BinaryTree>
    <BinaryTree type="DecisionTree" boostWeight="2.3650814899317069e-01" itree="16">
      <Node pos="s" depth="0" NCoef="0" IVar="0" Cut="-9.0812545776367188e+01" cType="0" res="-9.9000000000000000e+01" rms="0.0000000000000000e+00" purity="5.0294876098632812e-01" nType="0">
        <Node pos="l" depth="1" NCoef="0" IVar="0" Cut="5.7957673072814941e-01" cType="0" res="-9.9000000000000000e+01" rms="0.0000000000000000e+00" purity="5.9442162513732910e-01" nType="0">
          <Node pos="l" depth="2" NCoef="0" IVar="-1" Cut="0.0000000000000000e+00" cType="1" res="-9.9000000000000000e+01" rms="0.0000000000000000e+00" purity="7.3324054479598999e-01" nType="1"/>
          <Node pos="r" depth="2" NCoef="0" IVar="6" Cut="6.2388908863067627e-01" cType="1" res="-9.9000000000000000e+01" rms="0.0000000000000000e+00" purity="4.8673310875892639e-01" nType="0">
            <Node pos="l" depth="3" NCoef="0" IVar="11" Cut="9.5589160919189453e-03" cType="1" res="-9.9000000000000000e+01" rms="0.0000000000000000e+00" purity="5.1243090629577637e-01" nType="0">
              <Node pos="l" depth="4" NCoef="0" IVar="-1" Cut="6.1176316812634468e-03" cType="1" res="-9.9000000000000000e+01" rms="0.0000000000000000e+00" purity="5.5161589384078979e-01" nType="1"/>
              <Node pos="r" depth="4" NCoef="0" IVar="7" Cut="3.0818727612495422e-01" cType="0" res="-9.9000000000000000e+01" rms="0.0000000000000000e+00" purity="4.7367617487907410e-01" nType="0">
                <Node pos="l" depth="5" NCoef="0" IVar="-1" Cut="0.0000000000000000e+00" cType="1" res="-9.9000000000000000e+01" rms="0.0000000000000000e+00" purity="5.6238943338394165e-01" nType="1"/>
                <Node pos="r" depth="5" NCoef="0" IVar="-1" Cut="0.0000000000000000e+00" cType="1" res="-9.9000000000000000e+01" rms="0.0000000000000000e+00" purity="3.7812590599060059e-01" nType="-1"/>
              </Node>
            </Node>
            <Node pos="r" depth="3" NCoef="0" IVar="-1" Cut="0.0000000000000000e+00" cType="1" res="-9.9000000000000000e+01" rms="0.0000000000000000e+00" purity="3.8433238863945007e-01" nType="-1"/>
          </Node>
        </Node>
        <Node pos="r" depth="1" NCoef="0" IVar="10" Cut="1.6800947487354279e-03" cType="1" res="-9.9000000000000000e+01" rms="0.0000000000000000e+00" purity="4.3935704231262207e-01" nType="0">
          <Node pos="l" depth="2" NCoef="0" IVar="5" Cut="1.3781921863555908e+00" cType="1" res="-9.9000000000000000e+01" rms="0.0000000000000000e+00" purity="4.5701512694358826e-01" nType="0">
            <Node pos="l" depth="3" NCoef="0" IVar="-1" Cut="0.0000000000000000e+00" cType="1" res="-9.9000000000000000e+01" rms="0.0000000000000000e+00" purity="5.8947575092315674e-01" nType="1"/>
            <Node pos="r" depth="3" NCoef="0" IVar="11" Cut="2.1647172980010509e-03" cType="1" res="-9.9000000000000000e+01" rms="0.0000000000000000e+00" purity="4.3208259344100952e-01" nType="0">
              <Node pos="l" depth="4" NCoef="0" IVar="-1" Cut="0.0000000000000000e+00" cType="1" res="-9.9000000000000000e+01" rms="0.0000000000000000e+00" purity="5.2686601877212524e-01" nType="1"/>
              <Node pos="r" depth="4" NCoef="0" IVar="-1" Cut="8.2359367609024048e-01" cType="1" res="-9.9000000000000000e+01" rms="0.0000000000000000e+00" purity="4.0828484296798706e-01" nType="-1"/>
            </Node>
          </Node>
          <Node pos="r" depth="2" NCoef="0" IVar="-1" Cut="3.5547474026679993e-01" cType="1" res="-9.9000000000000000e+01" rms="0.0000000000000000e+00" purity="2.6993921399116516e-01" nType="-1"/>
        </Node>
      </Node>
    </BinaryTree>
    <BinaryTree type="DecisionTree" boostWeight="1.8386008598808476e-01" itree="17">
      <Node pos="s" depth="0" NCoef="0" IVar="7" Cut="4.5174783468246460e-01" cType="1" res="-9.9000000000000000e+01" rms="0.0000000000000000e+00" purity="5.1572871208190918e-01" nType="0">
        <Node pos="l" depth="1" NCoef="0" IVar="8" Cut="5.0205165147781372e-01" cType="1" res="-9.9000000000000000e+01" rms="0.0000000000000000e+00" purity="5.3904700279235840e-01" nType="0">
          <Node pos="l" depth="2" NCoef="0" IVar="-1" Cut="0.0000000000000000e+00" cType="1" res="-9.9000000000000000e+01" rms="0.0000000000000000e+00" purity="6.7813557386398315e-01" nType="1"/>
          <Node pos="r" depth="2" NCoef="0" IVar="5" Cut="1.4096164703369141e+00" cType="1" res="-9.9000000000000000e+01" rms="0.0000000000000000e+00" purity="5.1763641834259033e-01" nType="0">
            <Node pos="l" depth="3" NCoef="0" IVar="0" Cut="-9.0818183898925781e+01" cType="0" res="-9.9000000000000000e+01" rms="0.0000000000000000e+00" purity="5.9751361608505249e-01" nType="0">
              <Node pos="l" depth="4" NCoef="0" IVar="-1" Cut="0.0000000000000000e+00" cType="1" res="-9.9000000000000000e+01" rms="0.0000000000000000e+00" purity="6.9307929277420044e-01" nType="1"/>
              <Node pos="r" depth="4" NCoef="0" IVar="6" Cut="4.8989701271057129e-01" cType="1" res="-9.9000000000000000e+01" rms="0.0000000000000000e+00" purity="5.1772195100784302e-01" nType="0">
                <Node pos="l" depth="5" NCoef="0" IVar="-1" Cut="0.0000000000000000e+00" cType="1" res="-9.9000000000000000e+01" rms="0.0000000000000000e+00" purity="5.7077473402023315e-01" nType="1"/>
                <Node pos="r" depth="5" NCoef="0" IVar="-1" Cut="0.0000000000000000e+00" cType="1" res="-9.9000000000000000e+01" rms="0.0000000000000000e+00" purity="4.4291263818740845e-01" nType="-1"/>
              </Node>
            </Node>
            <Node pos="r" depth="3" NCoef="0" IVar="11" Cut="1.2650197371840477e-02" cType="1" res="-9.9000000000000000e+01" rms="0.0000000000000000e+00" purity="4.9737450480461121e-01" nType="0">
              <Node pos="l" depth="4" NCoef="0" IVar="4" Cut="1.4664915800094604e+00" cType="0" res="-9.9000000000000000e+01" rms="0.0000000000000000e+00" purity="5.1806908845901489e-01" nType="0">
                <Node pos="l" depth="5" NCoef="0" IVar="-1" Cut="0.0000000000000000e+00" cType="1" res="-9.9000000000000000e+01" rms="0.0000000000000000e+00" purity="5.7805126905441284e-01" nType="1"/>
                <Node pos="r" depth="5" NCoef="0" IVar="-1" Cut="0.0000000000000000e+00" cType="1" res="-9.9000000000000000e+01" rms="0.0000000000000000e+00" purity="4.7549018263816833e-01" nType="-1"/>
              </Node>
              <Node pos="r" depth="4" NCoef="0" IVar="-1" Cut="1.4822223186492920e+00" cType="1" res="-9.9000000000000000e+01" rms="0.0000000000000000e+00" purity="3.8704296946525574e-01" nType="-1"/>
            </Node>
          </Node>
        </Node>
        <Node pos="r" depth="1" NCoef="0" IVar="9" Cut="8.5742092132568359e-01" cType="1" res="-9.9000000000000000e+01" rms="0.0000000000000000e+00" purity="3.8059654831886292e-01" nType="0">
          <Node pos="l" depth="2" NCoef="0" IVar="8" Cut="7.7444738149642944e-01" cType="1" res="-9.9000000000000000e+01" rms="0.0000000000000000e+00" purity="4.3142303824424744e-01" nType="0">
            <Node pos="l" depth="3" NCoef="0" IVar="-1" Cut="0.0000000000000000e+00" cType="1" res="-9.9000000000000000e+01" rms="0.0000000000000000e+00" purity="5.0830900669097900e-01" nType="1"/>
            <Node pos="r" depth="3" NCoef="0" IVar="-1" Cut="0.0000000000000000e+00" cType="1" res="-9.9000000000000000e+01" rms="0.0000000000000000e+00" purity="3.4748393297195435e-01" nType="-1"/>
          </Node>
          <Node pos="r" depth="2" NCoef="0" IVar="-1" Cut="0.0000000000000000e+00" cType="1" res="-9.9000000000000000e+01" rms="0.0000000000000000e+00" purity="2.5541639328002930e-01" nType="-1"/>
        </Node>
      </Node>
    </BinaryTree>
    <BinaryTree type="DecisionTree" boostWeight="2.2024733573564476e-01" itree="18">
      <Node pos="s" depth="0" NCoef="0" IVar="0" Cut="-9.0818183898925781e+01" cType="0" res="-9.9000000000000000e+01" rms="0.0000000000000000e+00" purity="5.3442746400833130e-01" nType="0">
        <Node pos="l" depth="1" NCoef="0" IVar="0" Cut="6.3662064075469971e-01" cType="0" res="-9.9000000000000000e+01" rms="0.0000000000000000e+00" purity="6.0199749469757080e-01" nType="0">
          <Node pos="l" depth="2" NCoef="0" IVar="-1" Cut="0.0000000000000000e+00" cType="1" res="-9.9000000000000000e+01" rms="0.0000000000000000e+00" purity="7.2582173347473145e-01" nType="1"/>
          <Node pos="r" depth="2" NCoef="0" IVar="6" Cut="6.2814313173294067e-01" cType="1" res="-9.9000000000000000e+01" rms="0.0000000000000000e+00" purity="5.2373415231704712e-01" nType="0">
            <Node pos="l" depth="3" NCoef="0" IVar="11" Cut="1.9830111414194107e-02" cType="1" res="-9.9000000000000000e+01" rms="0.0000000000000000e+00" purity="5.4896873235702515e-01" nType="0">
              <Node pos="l" depth="4" NCoef="0" IVar="0" Cut="2.3192565143108368e-01" cType="1" res="-9.9000000000000000e+01" rms="0.0000000000000000e+00" purity="5.6771028041839600e-01" nType="0">
                <Node pos="l" depth="5" NCoef="0" IVar="-1" Cut="0.0000000000000000e+00" cType="1" res="-9.9000000000000000e+01" rms="0.0000000000000000e+00" purity="6.0339885950088501e-01" nType="1"/>
                <Node pos="r" depth="5" NCoef="0" IVar="-1" Cut="0.0000000000000000e+00" cType="1" res="-9.9000000000000000e+01" rms="0.0000000000000000e+00" purity="4.7971066832542419e-01" nType="-1"/>
              </Node>
              <Node pos="r" depth="4" NCoef="0" IVar="-1" Cut="0.0000000000000000e+00" cType="1" res="-9.9000000000000000e+01" rms="0.0000000000000000e+00" purity="4.3517944216728210e-01" nType="-1"/>
            </Node>
            <Node pos="r" depth="3" NCoef="0" IVar="-1" Cut="0.0000000000000000e+00" cType="1" res="-9.9000000000000000e+01" rms="0.0000000000000000e+00" purity="4.0487930178642273e-01" nType="-1"/>
          </Node>
        </Node>
        <Node pos="r" depth="1" NCoef="0" IVar="7" Cut="5.3104823827743530e-01" cType="1" res="-9.9000000000000000e+01" rms="0.0000000000000000e+00" purity="4.8825466632843018e-01" nType="0">
          <Node pos="l" depth="2" NCoef="0" IVar="7" Cut="3.9310345053672791e-01" cType="1" res="-9.9000000000000000e+01" rms="0.0000000000000000e+00" purity="5.0082564353942871e-01" nType="0">
            <Node pos="l" depth="3" NCoef="0" IVar="2" Cut="2.7372956275939941e-01" cType="0" res="-9.9000000000000000e+01" rms="0.0000000000000000e+00" purity="5.1850420236587524e-01" nType="0">
              <Node pos="l" depth="4" NCoef="0" IVar="-1" Cut="6.6969186067581177e-01" cType="0" res="-9.9000000000000000e+01" rms="0.0000000000000000e+00" purity="5.7191592454910278e-01" nType="1"/>
              <Node pos="r" depth="4" NCoef="0" IVar="7" Cut="1.9245739281177521e-01" cType="1" res="-9.9000000000000000e+01" rms="0.0000000000000000e+00" purity="4.5758974552154541e-01" nType="0">
                <Node pos="l" depth="5" NCoef="0" IVar="-1" Cut="0.0000000000000000e+00" cType="1" res="-9.9000000000000000e+01" rms="0.0000000000000000e+00" purity="5.2678364515304565e-01" nType="1"/>
                <Node pos="r" depth="5" NCoef="0" IVar="-1" Cut="0.0000000000000000e+00" cType="1" res="-9.9000000000000000e+01" rms="0.0000000000000000e+00" purity="4.2447540163993835e-01" nType="-1"/>
              </Node>
            </Node>
            <Node pos="r" depth="3" NCoef="0" IVar="9" Cut="8.2371503114700317e-01" cType="1" res="-9.9000000000000000e+01" rms="0.0000000000000000e+00" purity="4.4461598992347717e-01" nType="0">
              <Node pos="l" depth="4" NCoef="0" IVar="9" Cut="7.7616673707962036e-01" cType="0" res="-9.9000000000000000e+01" rms="0.0000000000000000e+00" purity="5.4610711336135864e-01" nType="0">
                <Node pos="l" depth="5" NCoef="0" IVar="-1" Cut="0.0000000000000000e+00" cType="1" res="-9.9000000000000000e+01" rms="0.0000000000000000e+00" purity="6.2349486351013184e-01" nType="1"/>
                <Node pos="r" depth="5" NCoef="0" IVar="-1" Cut="0.0000000000000000e+00" cType="1" res="-9.9000000000000000e+01" rms="0.0000000000000000e+00" purity="4.5824801921844482e-01" nType="-1"/>
              </Node>
              <Node pos="r" depth="4" NCoef="0" IVar="-1" Cut="4.5121824368834496e-03" cType="1" res="-9.9000000000000000e+01" rms="0.0000000000000000e+00" purity="3.2238137722015381e-01" nType="-1"/>
            </Node>
          </Node>
          <Node pos="r" depth="2" NCoef="0" IVar="-1" Cut="0.0000000000000000e+00" cType="1" res="-9.9000000000000000e+01" rms="0.0000000000000000e+00" purity="2.6711982488632202e-01" nType="-1"/>
        </Node>
      </Node>
    </BinaryTree>
    <BinaryTree type="DecisionTree" boostWeight="1.9555643961159525e-01" itree="19">
      <Node pos="s" depth="0" NCoef="0" IVar="5" Cut="1.3473987579345703e+00" cType="1" res="-9.9000000000000000e+01" rms="0.0000000000000000e+00" purity="4.9900865554809570e-01" nType="0">
        <Node pos="l" depth="1" NCoef="0" IVar="-1" Cut="1.5991980209946632e-02" cType="1" res="-9.9000000000000000e+01" rms="0.0000000000000000e+00" purity="6.4978855848312378e-01" nType="1"/>
        <Node pos="r" depth="1" NCoef="0" IVar="2" Cut="3.7176936864852905e-01" cType="1" res="-9.9000000000000000e+01" rms="0.0000000000000000e+00" purity="4.7298449277877808e-01" nType="0">
          <Node pos="l" depth="2" NCoef="0" IVar="9" Cut="8.3156347274780273e-01" cType="1" res="-9.9000000000000000e+01" rms="0.0000000000000000e+00" purity="4.9138686060905457e-01" nType="0">
            <Node pos="l" depth="3" NCoef="0" IVar="0" Cut="-9.0818183898925781e+01" cType="0" res="-9.9000000000000000e+01" rms="0.0000000000000000e+00" purity="5.3965532779693604e-01" nType="0">
              <Node pos="l" depth="4" NCoef="0" IVar="0" Cut="9.1841429471969604e-02" cType="0" res="-9.9000000000000000e+01" rms="0.0000000000000000e+00" purity="5.9864050149917603e-01" nType="0">
                <Node pos="l" depth="5" NCoef="0" IVar="-1" Cut="0.0000000000000000e+00" cType="1" res="-9.9000000000000000e+01" rms="0.0000000000000000e+00" purity="6.4625775814056396e-01" nType="1"/>
                <Node pos="r" depth="5" NCoef="0" IVar="-1" Cut="0.0000000000000000e+00" cType="1" res="-9.9000000000000000e+01" rms="0.0000000000000000e+00" purity="4.2772299051284790e-01" nType="-1"/>
              </Node>
              <Node pos="r" depth="4" NCoef="0" IVar="8" Cut="7.5339293479919434e-01" cType="0" res="-9.9000000000000000e+01" rms="0.0000000000000000e+00" purity="4.9489319324493408e-01" nType="0">
                <Node pos="l" depth="5" NCoef="0" IVar="-1" Cut="0.0000000000000000e+00" cType="1" res="-9.9000000000000000e+01" rms="0.0000000000000000e+00" purity="5.4277724027633667e-01" nType="1"/>
                <Node pos="r" depth="5" NCoef="0" IVar="-1" Cut="0.0000000000000000e+00" cType="1" res="-9.9000000000000000e+01" rms="0.0000000000000000e+00" purity="4.5895686745643616e-01" nType="-1"/>
              </Node>
            </Node>
            <Node pos="r" depth="3" NCoef="0" IVar="11" Cut="1.2101402506232262e-02" cType="1" res="-9.9000000000000000e+01" rms="0.0000000000000000e+00" purity="4.4207862019538879e-01" nType="0">
              <Node pos="l" depth="4" NCoef="0" IVar="11" Cut="3.3323827665299177e-03" cType="1" res="-9.9000000000000000e+01" rms="0.0000000000000000e+00" purity="4.6855562925338745e-01" nType="0">
                <Node pos="l" depth="5" NCoef="0" IVar="-1" Cut="0.0000000000000000e+00" cType="1" res="-9.9000000000000000e+01" rms="0.0000000000000000e+00" purity="5.2619129419326782e-01" nType="1"/>
                <Node pos="r" depth="5" NCoef="0" IVar="-1" Cut="0.0000000000000000e+00" cType="1" res="-9.9000000000000000e+01" rms="0.0000000000000000e+00" purity="4.3839284777641296e-01" nType="-1"/>
              </Node>
              <Node pos="r" depth="4" NCoef="0" IVar="-1" Cut="-9.0818183898925781e+01" cType="0" res="-9.9000000000000000e+01" rms="0.0000000000000000e+00" purity="2.8884387016296387e-01" nType="-1"/>
            </Node>
          </Node>
          <Node pos="r" depth="2" NCoef="0" IVar="-1" Cut="8.1423777341842651e-01" cType="1" res="-9.9000000000000000e+01" rms="0.0000000000000000e+00" purity="3.2804411649703979e-01" nType="-1"/>
        </Node>
      </Node>
    </BinaryTree>
    <BinaryTree type="DecisionTree" boostWeight="2.1367163722346225e-01" itree="20">
      <Node pos="s" depth="0" NCoef="0" IVar="0" Cut="-9.0818183898925781e+01" cType="0" res="-9.9000000000000000e+01" rms="0.0000000000000000e+00" purity="5.0130665302276611e-01" nType="0">
        <Node pos="l" depth="1" NCoef="0" IVar="0" Cut="6.3662064075469971e-01" cType="0" res="-9.9000000000000000e+01" rms="0.0000000000000000e+00" purity="5.6599253416061401e-01" nType="0">
          <Node pos="l" depth="2" NCoef="0" IVar="-1" Cut="0.0000000000000000e+00" cType="1" res="-9.9000000000000000e+01" rms="0.0000000000000000e+00" purity="6.8416190147399902e-01" nType="1"/>
          <Node pos="r" depth="2" NCoef="0" IVar="8" Cut="8.4566456079483032e-01" cType="1" res="-9.9000000000000000e+01" rms="0.0000000000000000e+00" purity="4.8883116245269775e-01" nType="0">
            <Node pos="l" depth="3" NCoef="0" IVar="1" Cut="2.9128676652908325e-01" cType="1" res="-9.9000000000000000e+01" rms="0.0000000000000000e+00" purity="5.0308871269226074e-01" nType="0">
              <Node pos="l" depth="4" NCoef="0" IVar="0" Cut="5.8512806892395020e-02" cType="0" res="-9.9000000000000000e+01" rms="0.0000000000000000e+00" purity="5.4364454746246338e-01" nType="0">
                <Node pos="l" depth="5" NCoef="0" IVar="-1" Cut="0.0000000000000000e+00" cType="1" res="-9.9000000000000000e+01" rms="0.0000000000000000e+00" purity="5.7278561592102051e-01" nType="1"/>
                <Node pos="r" depth="5" NCoef="0" IVar="-1" Cut="0.0000000000000000e+00" cType="1" res="-9.9000000000000000e+01" rms="0.0000000000000000e+00" purity="4.6476477384567261e-01" nType="-1"/>
              </Node>
              <Node pos="r" depth="4" NCoef="0" IVar="8" Cut="6.6877537965774536e-01" cType="0" res="-9.9000000000000000e+01" rms="0.0000000000000000e+00" purity="4.5141878724098206e-01" nType="0">
                <Node pos="l" depth="5" NCoef="0" IVar="-1" Cut="0.0000000000000000e+00" cType="1" res="-9.9000000000000000e+01" rms="0.0000000000000000e+00" purity="5.1005476713180542e-01" nType="1"/>
                <Node pos="r" depth="5" NCoef="0" IVar="-1" Cut="0.0000000000000000e+00" cType="1" res="-9.9000000000000000e+01" rms="0.0000000000000000e+00" purity="3.7219265103340149e-01" nType="-1"/>
              </Node>
            </Node>
            <Node pos="r" depth="3" NCoef="0" IVar="-1" Cut="0.0000000000000000e+00" cType="1" res="-9.9000000000000000e+01" rms="0.0000000000000000e+00" purity="3.8818553090095520e-01" nType="-1"/>
          </Node>
        </Node>
        <Node pos="r" depth="1" NCoef="0" IVar="11" Cut="9.8799932748079300e-03" cType="1" res="-9.9000000000000000e+01" rms="0.0000000000000000e+00" purity="4.5723491907119751e-01" nType="0">
          <Node pos="l" depth="2" NCoef="0" IVar="11" Cut="4.5044044964015484e-03" cType="0" res="-9.9000000000000000e+01" rms="0.0000000000000000e+00" purity="4.9134203791618347e-01" nType="0">
            <Node pos="l" depth="3" NCoef="0" IVar="6" Cut="5.4869550466537476e-01" cType="1" res="-9.9000000000000000e+01" rms="0.0000000000000000e+00" purity="5.4062634706497192e-01" nType="0">
              <Node pos="l" depth="4" NCoef="0" IVar="-1" Cut="3.6747241020202637e-01" cType="1" res="-9.9000000000000000e+01" rms="0.0000000000000000e+00" purity="5.8749675750732422e-01" nType="1"/>
              <Node pos="r" depth="4" NCoef="0" IVar="10" Cut="6.6319480538368225e-04" cType="1" res="-9.9000000000000000e+01" rms="0.0000000000000000e+00" purity="4.2896956205368042e-01" nType="0">
                <Node pos="l" depth="5" NCoef="0" IVar="-1" Cut="0.0000000000000000e+00" cType="1" res="-9.9000000000000000e+01" rms="0.0000000000000000e+00" purity="5.0287866592407227e-01" nType="1"/>
                <Node pos="r" depth="5" NCoef="0" IVar="-1" Cut="0.0000000000000000e+00" cType="1" res="-9.9000000000000000e+01" rms="0.0000000000000000e+00" purity="3.4848186373710632e-01" nType="-1"/>
              </Node>
            </Node>
            <Node pos="r" depth="3" NCoef="0" IVar="11" Cut="2.0609595812857151e-03" cType="1" res="-9.9000000000000000e+01" rms="0.0000000000000000e+00" purity="4.4541764259338379e-01" nType="0">
              <Node pos="l" depth="4" NCoef="0" IVar="-1" Cut="0.0000000000000000e+00" cType="1" res="-9.9000000000000000e+01" rms="0.0000000000000000e+00" purity="5.1666146516799927e-01" nType="1"/>
              <Node pos="r" depth="4" NCoef="0" IVar="-1" Cut="2.1450927257537842e+00" cType="1" res="-9.9000000000000000e+01" rms="0.0000000000000000e+00" purity="3.9716997742652893e-01" nType="-1"/>
            </Node>
          </Node>
          <Node pos="r" depth="2" NCoef="0" IVar="9" Cut="8.0685132741928101e-01" cType="1" res="-9.9000000000000000e+01" rms="0.0000000000000000e+00" purity="3.4751448035240173e-01" nType="0">
            <Node pos="l" depth="3" NCoef="0" IVar="11" Cut="1.3911711052060127e-02" cType="1" res="-9.9000000000000000e+01" rms="0.0000000000000000e+00" purity="4.9454784393310547e-01" nType="0">
              <Node pos="l" depth="4" NCoef="0" IVar="-1" Cut="0.0000000000000000e+00" cType="1" res="-9.9000000000000000e+01" rms="0.0000000000000000e+00" purity="5.6093394756317139e-01" nType="1"/>
              <Node pos="r" depth="4" NCoef="0" IVar="-1" Cut="0.0000000000000000e+00" cType="1" res="-9.9000000000000000e+01" rms="0.0000000000000000e+00" purity="4.4096487760543823e-01" nType="-1"/>
            </Node>
            <Node pos="r" depth="3" NCoef="0" IVar="-1" Cut="3.0885517597198486e-01" cType="1" res="-9.9000000000000000e+01" rms="0.0000000000000000e+00" purity="2.3209773004055023e-01" nType="-1"/>
          </Node>
        </Node>
      </Node>
    </BinaryTree>
    <BinaryTree type="DecisionTree" boostWeight="1.7736127326841314e-01" itree="21">
      <Node pos="s" depth="0" NCoef="0" IVar="5" Cut="1.3860573768615723e+00" cType="1" res="-9.9000000000000000e+01" rms="0.0000000000000000e+00" purity="4.9970144033432007e-01" nType="0">
        <Node pos="l" depth="1" NCoef="0" IVar="0" Cut="-9.0818183898925781e+01" cType="0" res="-9.9000000000000000e+01" rms="0.0000000000000000e+00" purity="5.9501367807388306e-01" nType="0">
          <Node pos="l" depth="2" NCoef="0" IVar="-1" Cut="0.0000000000000000e+00" cType="1" res="-9.9000000000000000e+01" rms="0.0000000000000000e+00" purity="6.9822937250137329e-01" nType="1"/>
          <Node pos="r" depth="2" NCoef="0" IVar="11" Cut="1.0967019945383072e-02" cType="1" res="-9.9000000000000000e+01" rms="0.0000000000000000e+00" purity="5.0074625015258789e-01" nType="0">
            <Node pos="l" depth="3" NCoef="0" IVar="-1" Cut="0.0000000000000000e+00" cType="1" res="-9.9000000000000000e+01" rms="0.0000000000000000e+00" purity="5.5036312341690063e-01" nType="1"/>
            <Node pos="r" depth="3" NCoef="0" IVar="-1" Cut="0.0000000000000000e+00" cType="1" res="-9.9000000000000000e+01" rms="0.0000000000000000e+00" purity="4.0954485535621643e-01" nType="-1"/>
          </Node>
        </Node>
        <Node pos="r" depth="1" NCoef="0" IVar="2" Cut="3.6989298462867737e-01" cType="1" res="-9.9000000000000000e+01" rms="0.0000000000000000e+00" purity="4.7598335146903992e-01" nType="0">
          <Node pos="l" depth="2" NCoef="0" IVar="5" Cut="1.9900443553924561e+00" cType="1" res="-9.9000000000000000e+01" rms="0.0000000000000000e+00" purity="4.9256879091262817e-01" nType="0">
            <Node pos="l" depth="3" NCoef="0" IVar="3" Cut="9.8526984453201294e-02" cType="1" res="-9.9000000000000000e+01" rms="0.0000000000000000e+00" purity="5.1111179590225220e-01" nType="0">
              <Node pos="l" depth="4" NCoef="0" IVar="11" Cut="1.1395017616450787e-02" cType="1" res="-9.9000000000000000e+01" rms="0.0000000000000000e+00" purity="5.3886091709136963e-01" nType="0">
                <Node pos="l" depth="5" NCoef="0" IVar="-1" Cut="0.0000000000000000e+00" cType="1" res="-9.9000000000000000e+01" rms="0.0000000000000000e+00" purity="5.5742323398590088e-01" nType="1"/>
                <Node pos="r" depth="5" NCoef="0" IVar="-1" Cut="0.0000000000000000e+00" cType="1" res="-9.9000000000000000e+01" rms="0.0000000000000000e+00" purity="4.0481233596801758e-01" nType="-1"/>
              </Node>
              <Node pos="r" depth="4" NCoef="0" IVar="-1" Cut="8.7920856475830078e-01" cType="1" res="-9.9000000000000000e+01" rms="0.0000000000000000e+00" purity="4.4037994742393494e-01" nType="-1"/>
            </Node>
            <Node pos="r" depth="3" NCoef="0" IVar="6" Cut="3.8240969181060791e-01" cType="0" res="-9.9000000000000000e+01" rms="0.0000000000000000e+00" purity="4.2323389649391174e-01" nType="0">
              <Node pos="l" depth="4" NCoef="0" IVar="8" Cut="7.7115857601165771e-01" cType="1" res="-9.9000000000000000e+01" rms="0.0000000000000000e+00" purity="4.7270286083221436e-01" nType="0">
                <Node pos="l" depth="5" NCoef="0" IVar="-1" Cut="0.0000000000000000e+00" cType="1" res="-9.9000000000000000e+01" rms="0.0000000000000000e+00" purity="5.1654970645904541e-01" nType="1"/>
                <Node pos="r" depth="5" NCoef="0" IVar="-1" Cut="0.0000000000000000e+00" cType="1" res="-9.9000000000000000e+01" rms="0.0000000000000000e+00" purity="4.0143245458602905e-01" nType="-1"/>
              </Node>
              <Node pos="r" depth="4" NCoef="0" IVar="-1" Cut="0.0000000000000000e+00" cType="1" res="-9.9000000000000000e+01" rms="0.0000000000000000e+00" purity="3.0059945583343506e-01" nType="-1"/>
            </Node>
          </Node>
          <Node pos="r" depth="2" NCoef="0" IVar="-1" Cut="5.0581496953964233e-01" cType="1" res="-9.9000000000000000e+01" rms="0.0000000000000000e+00" purity="3.4106621146202087e-01" nType="-1"/>
        </Node>
      </Node>
    </BinaryTree>
    <BinaryTree type="DecisionTree" boostWeight="1.5473794764323312e-01" itree="22">
      <Node pos="s" depth="0" NCoef="0" IVar="9" Cut="7.1443355083465576e-01" cType="1" res="-9.9000000000000000e+01" rms="0.0000000000000000e+00" purity="4.9686223268508911e-01" nType="0">
        <Node pos="l" depth="1" NCoef="0" IVar="-1" Cut="1.4045645948499441e-03" cType="1" res="-9.9000000000000000e+01" rms="0.0000000000000000e+00" purity="6.2267124652862549e-01" nType="1"/>
        <Node pos="r" depth="1" NCoef="0" IVar="0" Cut="-9.0818183898925781e+01" cType="0" res="-9.9000000000000000e+01" rms="0.0000000000000000e+00" purity="4.7802004218101501e-01" nType="0">
          <Node pos="l" depth="2" NCoef="0" IVar="8" Cut="5.9429031610488892e-01" cType="1" res="-9.9000000000000000e+01" rms="0.0000000000000000e+00" purity="5.3353291749954224e-01" nType="0">
            <Node pos="l" depth="3" NCoef="0" IVar="-1" Cut="0.0000000000000000e+00" cType="1" res="-9.9000000000000000e+01" rms="0.0000000000000000e+00" purity="6.6492080688476562e-01" nType="1"/>
            <Node pos="r" depth="3" NCoef="0" IVar="8" Cut="7.8527355194091797e-01" cType="1" res="-9.9000000000000000e+01" rms="0.0000000000000000e+00" purity="4.8356923460960388e-01" nType="0">
              <Node pos="l" depth="4" NCoef="0" IVar="3" Cut="1.2082150578498840e-01" cType="1" res="-9.9000000000000000e+01" rms="0.0000000000000000e+00" purity="5.2480649948120117e-01" nType="0">
                <Node pos="l" depth="5" NCoef="0" IVar="-1" Cut="0.0000000000000000e+00" cType="1" res="-9.9000000000000000e+01" rms="0.0000000000000000e+00" purity="5.4518675804138184e-01" nType="1"/>
                <Node pos="r" depth="5" NCoef="0" IVar="-1" Cut="0.0000000000000000e+00" cType="1" res="-9.9000000000000000e+01" rms="0.0000000000000000e+00" purity="4.4445523619651794e-01" nType="-1"/>
              </Node>
              <Node pos="r" depth="4" NCoef="0" IVar="-1" Cut="6.8814726546406746e-04" cType="1" res="-9.9000000000000000e+01" rms="0.0000000000000000e+00" purity="4.1281351447105408e-01" nType="-1"/>
            </Node>
          </Node>
          <Node pos="r" depth="2" NCoef="0" IVar="-1" Cut="4.5841106772422791e-01" cType="1" res="-9.9000000000000000e+01" rms="0.0000000000000000e+00" purity="4.4301775097846985e-01" nType="-1"/>
        </Node>
      </Node>
    </BinaryTree>
    <BinaryTree type="DecisionTree" boostWeight="1.0870337352420946e-01" itree="23">
      <Node pos="s" depth="0" NCoef="0" IVar="10" Cut="2.2566537372767925e-03" cType="1" res="-9.9000000000000000e+01" rms="0.0000000000000000e+00" purity="5.0517189502716064e-01" nType="0">
        <Node pos="l" depth="1" NCoef="0" IVar="7" Cut="5.4837197065353394e-01" cType="1" res="-9.9000000000000000e+01" rms="0.0000000000000000e+00" purity="5.1537007093429565e-01" nType="0">
          <Node pos="l" depth="2" NCoef="0" IVar="8" Cut="4.9850514531135559e-01" cType="1" res="-9.9000000000000000e+01" rms="0.0000000000000000e+00" purity="5.2343404293060303e-01" nType="0">
            <Node pos="l" depth="3" NCoef="0" IVar="-1" Cut="0.0000000000000000e+00" cType="1" res="-9.9000000000000000e+01" rms="0.0000000000000000e+00" purity="6.3888299465179443e-01" nType="1"/>
            <Node pos="r" depth="3" NCoef="0" IVar="9" Cut="8.1504565477371216e-01" cType="1" res="-9.9000000000000000e+01" rms="0.0000000000000000e+00" purity="5.0850939750671387e-01" nType="0">
              <Node pos="l" depth="4" NCoef="0" IVar="-1" Cut="3.2185536623001099e-01" cType="0" res="-9.9000000000000000e+01" rms="0.0000000000000000e+00" purity="5.4468679428100586e-01" nType="1"/>
              <Node pos="r" depth="4" NCoef="0" IVar="-1" Cut="8.5492628812789917e-01" cType="1" res="-9.9000000000000000e+01" rms="0.0000000000000000e+00" purity="4.8115631937980652e-01" nType="-1"/>
            </Node>
          </Node>
          <Node pos="r" depth="2" NCoef="0" IVar="-1" Cut="0.0000000000000000e+00" cType="1" res="-9.9000000000000000e+01" rms="0.0000000000000000e+00" purity="2.9690465331077576e-01" nType="-1"/>
        </Node>
        <Node pos="r" depth="1" NCoef="0" IVar="-1" Cut="7.6409846544265747e-01" cType="1" res="-9.9000000000000000e+01" rms="0.0000000000000000e+00" purity="3.6173564195632935e-01" nType="-1"/>
      </Node>
    </BinaryTree>
    <BinaryTree type="DecisionTree" boostWeight="1.3994832466486962e-01" itree="24">
      <Node pos="s" depth="0" NCoef="0" IVar="5" Cut="1.3860573768615723e+00" cType="1" res="-9.9000000000000000e+01" rms="0.0000000000000000e+00" purity="5.1327389478683472e-01" nType="0">
        <Node pos="l" depth="1" NCoef="0" IVar="0" Cut="-9.0818183898925781e+01" cType="0" res="-9.9000000000000000e+01" rms="0.0000000000000000e+00" purity="5.8487099409103394e-01" nType="0">
          <Node pos="l" depth="2" NCoef="0" IVar="-1" Cut="0.0000000000000000e+00" cType="1" res="-9.9000000000000000e+01" rms="0.0000000000000000e+00" purity="6.7835044860839844e-01" nType="1"/>
          <Node pos="r" depth="2" NCoef="0" IVar="8" Cut="5.9659165143966675e-01" cType="1" res="-9.9000000000000000e+01" rms="0.0000000000000000e+00" purity="4.9775138497352600e-01" nType="0">
            <Node pos="l" depth="3" NCoef="0" IVar="-1" Cut="0.0000000000000000e+00" cType="1" res="-9.9000000000000000e+01" rms="0.0000000000000000e+00" purity="5.3501659631729126e-01" nType="1"/>
            <Node pos="r" depth="3" NCoef="0" IVar="-1" Cut="0.0000000000000000e+00" cType="1" res="-9.9000000000000000e+01" rms="0.0000000000000000e+00" purity="4.5614188909530640e-01" nType="-1"/>
          </Node>
        </Node>
        <Node pos="r" depth="1" NCoef="0" IVar="5" Cut="1.9900435209274292e+00" cType="1" res="-9.9000000000000000e+01" rms="0.0000000000000000e+00" purity="4.9563360214233398e-01" nType="0">
          <Node pos="l" depth="2" NCoef="0" IVar="7" Cut="4.6081349253654480e-01" cType="1" res="-9.9000000000000000e+01" rms="0.0000000000000000e+00" purity="5.1107048988342285e-01" nType="0">
